1956 128
318 0.16352403 -0.026763719 0.3646487 0.4112815 -0.55906725 -0.28842607 -0.111710966 0.132542 -0.54616445 -0.114652075 0.76875174 -0.41402516 -0.3519673 0.28767523 -0.12021167 0.5020092 0.18089217 0.2387973 -0.6657281 -0.11250779 0.45895612 0.12509543 0.1431798 -0.45184484 0.05034752 0.18807021 -0.36805007 -0.17717876 -0.06014027 -0.93979865 0.07931703 0.31241477 0.09272226 -0.3655433 -0.12798361 0.7771771 0.5837979 -0.6498558 0.19742972 -0.069287166 0.006657592 0.0798755 -0.68624645 -0.7551037 0.2567011 -0.2479539 -0.37591252 -0.22626835 0.65055007 0.17040971 -0.122418806 0.41541037 -0.21992306 0.082504444 0.56570506 -0.18296358 0.6639074 0.19384564 -0.31188935 0.160008 -0.41279095 -0.03695562 0.08117252 0.3050403 0.3458927 -0.11346933 -0.0910468 0.032667626 -0.32556957 -0.38260254 -0.12903 0.46661043 -0.35042998 -0.28772885 0.18170679 0.07100124 -0.031528596 0.013213341 -0.5384017 -0.26421613 0.2077668 -0.51926666 0.38058326 0.23253007 0.03066781 0.23292424 0.51545495 -0.68979365 -0.14510633 0.6182597 0.2604439 -0.022807281 -0.6279236 -0.14093739 0.63775325 0.44689342 -0.2975945 -0.1440078 -0.2620719 -0.023496754 -0.3592834 0.09613475 0.24590614 -0.010282057 0.14887825 -0.36186284 0.24559648 0.6188249 0.14156827 -0.40262586 0.004989699 -0.46636558 -0.31213397 0.3025828 0.071839914 -0.014570525 -0.0017337693 0.24395323 0.043669127 0.19433612 0.23150387 -0.24411301 0.19426267 -0.10314504 0.32773134 0.041761227 -0.30192697 0.3714509
356 -0.17243859 0.07807708 0.2721468 -0.2447128 -0.34456605 -0.45849928 -0.090971306 -0.052749228 -0.011380914 0.51135224 0.9808635 0.30635956 0.08308291 -0.27302566 0.043969586 0.82953644 0.18433349 -0.2793939 -0.20266996 -0.022377675 0.24870707 0.32194057 -0.012874718 -0.39290723 -0.2874237 0.5478587 -0.5522307 -0.14308387 0.14742906 -0.40319327 -0.17442548 0.79075414 -0.12923755 0.01304833 -0.2582843 0.5051857 0.193956 -0.023749335 0.4639767 -0.403085 0.19684587 -0.18191405 -0.65549326 -0.73486125 0.41645095 0.11568095 -0.14979301 0.06747106 0.0069251372 0.2852256 0.19980432 0.12462983 -0.068503425 -0.33125558 0.17881615 -0.6463806 0.8222756 0.21918125 -0.2955615 -0.3626915 -0.13599558 -0.26850608 0.10071961 0.66652244 0.29677564 -0.3932045 0.14520092 0.112737246 0.30683896 -0.2294387 -0.35697022 0.59364504 -0.5241614 0.048878547 0.089366995 -0.30882144 0.018774228 0.14183229 -0.14133525 -0.19449109 -0.717006 -0.43717495 -0.06649699 0.054980118 -0.023169123 0.47214428 0.43879178 -0.6039 -0.036171302 0.547072 -0.15714331 -0.17306761 -0.80443513 -0.45112142 0.14349847 0.12634599 0.22466843 -0.68351644 0.30174065 0.6243077 -0.6574829 0.55748045 0.04292009 -0.29373154 -0.29470134 -0.33863017 0.17838809 0.85654265 -0.117901325 -0.41006666 0.14404735 -0.2746958 -0.3857862 0.061848503 0.22308433 0.47404078 -0.035220493 0.35617504 -0.14873697 -0.09928467 -0.261055 -0.33119357 0.027210454 0.09670381 -0.22045399 -0.22763611 -0.56422 0.044505566
296 0.17725591 0.2817085 0.22137094 -0.346697 -0.31866732 -0.16813122 0.3755756 -0.24750955 -0.37541506 0.6536228 0.82488734 0.18993126 -0.26765034 -0.25728455 0.47537965 0.9492876 -0.46533296 -0.12521881 -0.4842943 0.27752802 1.0348616 0.028418388 0.020753859 -0.31845888 0.11589261 0.016453989 -0.53014094 0.14904968 -0.044810552 -0.59717715 -0.37423512 -0.15800479 0.20413223 0.0855654 -0.08089679 0.28425416 0.36679146 -0.47398865 0.4215749 -0.29958194 0.25863922 0.20961577 -0.07991296 -0.20518154 0.04288473 -0.041512396 -0.20248117 -0.46970788 0.5024113 -0.10673587 0.58409774 0.34346142 0.006500471 0.14268084 0.8488611 -0.22877674 0.75207657 0.24825732 -0.17096196 -0.303896 -0.07085653 -0.15718462 -0.14088419 0.37720746 0.11573267 -0.4416825 0.12962335 -0.19253583 -0.046794802 0.007909029 0.29307485 0.35008454 -0.46381703 -0.7685105 0.053171437 -0.32537073 -0.40218478 0.0038908892 -0.24616636 0.29354483 -0.08649144 -0.44786665 0.067901425 0.2370555 -0.17466265 0.011793221 0.8562224 -0.36217046 0.18325712 0.29525968 -0.019267341 0.021668581 -0.21336566 0.22516395 0.3520412 0.18923528 -0.48792425 -0.4931702 -0.47580677 -0.0018696516 0.063816175 0.20443967 -0.056248054 -0.3417372 -0.3540839 0.08368311 0.22355491 0.41887724 0.10809761 -0.6773244 -0.26849714 0.11044998 -0.54450536 0.14130141 -0.032447953 -0.18283173 -0.28186923 0.40198147 -0.037912797 -0.10344933 -0.3235677 0.11271728 -0.44842088 0.44080722 0.16075456 0.07084764 -0.5123601 0.34814447
593 0.30270177 -0.28891242 0.69316953 0.25587398 -0.056834426 -0.61171407 0.09586624 -0.042827126 -0.22462717 0.3398052 0.79158974 -0.32451075 0.04641417 -0.38411635 0.48066697 0.5593085 -0.22441258 0.044460606 -0.6905515 -0.14107762 0.37584704 0.54575557 0.20892707 -0.27418882 -0.04406525 0.23563942 -0.37614572 -0.23137918 -0.15143673 -0.86470675 -0.61172706 0.025314674 -0.32502514 -0.0077799247 0.273691 0.6471795 0.13025501 0.020839995 0.04335922 -0.07079121 -0.03282402 -0.113107145 -0.37576523 -0.14382213 0.16155396 0.15213785 -0.07463578 -0.049299043 -0.10248824 -0.12550324 0.5613824 0.19926682 0.3447638 0.3000387 0.21453585 0.09670592 0.5247702 0.37951025 -0.6957101 0.4869311 -0.6849506 -0.12348528 0.24872585 -0.2525633 0.106384404 -0.87702346 0.022626216 0.06831505 0.17622733 -0.4085407 -0.40223706 0.0054299687 -0.7967885 -0.4042716 -0.099892005 -0.62198853 -0.54500246 -0.071163274 -0.019897802 0.29254416 -0.006384323 -0.11405324 0.6143261 0.6033241 -0.094030134 0.6498872 0.19552998 0.00072984945 -0.31643537 0.26474425 0.21493402 -0.19723688 -0.2902329 0.32221755 0.44366795 -0.35810408 -0.22695422 0.21650004 0.041407347 0.20139706 -0.094101824 -0.63320714 0.3010737 -0.30883402 -0.5176658 -0.58105755 -0.030728037 0.5707181 0.4976042 -0.22824217 -0.26518083 -0.7109684 -0.068108685 -0.19188543 -0.10898513 0.5179628 -0.3418492 -0.11315774 -0.14119053 -0.094188794 -0.62807035 -0.21173033 0.37906942 0.1415115 0.30110523 -0.4667795 -0.06794744 0.49093524
2571 -0.15073748 -0.24605982 -0.023714764 0.024571005 0.07114432 -0.19676429 -0.27227932 -0.106795914 -0.52514446 -0.041001868 0.47303268 -0.2765044 -0.14290832 -0.70435435 0.44410262 -0.36999255 -0.38002995 0.07961234 -0.42696074 -0.071139835 0.30678153 0.39509583 0.17131934 0.5042355 -0.51847076 0.6448196 0.08320171 0.065472595 0.5467487 -0.46962002 -0.0038635868 -0.18496072 -0.6456475 0.23947921 0.085863836 0.4043836 -0.38554245 -0.15340663 -0.052704077 -0.08764381 0.100572884 0.6467408 -0.50368863 0.12115036 0.6817058 -0.4633301 -0.48571405 -0.043034986 0.7869112 -0.25325534 0.71440595 -0.21342522 -0.22849545 0.13332391 0.20113619 0.65611416 0.65783656 -0.44005495 -0.18924764 0.11114943 0.18515247 0.24273044 -0.11638452 0.5124166 -0.06158893 0.1165705 0.026356937 0.11666083 0.11856036 -0.48873138 0.048448373 0.011931102 -0.5953833 0.031525675 0.1552647 -0.023910327 -0.25193617 0.24239025 0.075260274 0.047772266 -0.7374553 -0.065412715 0.3497078 0.81376565 0.32443595 0.113174714 -0.08936681 -0.8988062 0.26610425 -0.013051661 0.18989308 -0.43856576 -0.23345247 0.16710544 0.56464976 0.4616776 0.36131752 -0.34841284 0.5671507 -0.46799275 -0.38986006 0.24279466 -0.63743836 0.537193 1.0888658 0.15066342 0.1898014 -0.47945428 -0.012759707 0.12931195 0.5986583 0.5190247 -0.03686387 0.40432152 -0.54355586 0.017856872 0.1732737 -0.09216418 0.35913154 0.69991225 -0.388962 0.080783375 0.095526196 0.086108506 -0.30336565 0.0055136527 -0.6724898 -0.18885385
260 0.24251407 0.09642694 0.56287295 0.21206042 0.090275146 -0.1209498 -0.046101086 -0.9051388 -0.025375051 0.63094884 0.61879796 -0.27070928 -0.2447305 0.18948522 0.4615231 0.52245575 0.052814566 -0.5051948 -0.4282413 -0.24265118 0.10804679 -0.1790666 -0.20262231 -0.13592213 -0.6567301 0.15869536 -0.42326245 -0.077335745 -0.48046082 -0.62698936 -0.17406209 0.3636878 0.2896394 -0.21507831 -0.37769347 0.3683728 0.6744288 0.23553279 0.08335524 -0.26135728 0.28950873 0.2955821 -0.17485298 -0.04423627 0.2311752 -0.6327604 0.3882079 -0.14187452 0.09520853 0.4833333 0.27795935 0.0027322883 0.04793408 0.25018176 0.36821884 -0.01192038 0.48001906 -0.039953697 -0.32408366 0.049362484 -0.28704667 -0.25011706 0.6484422 0.8426462 0.30354804 -0.8313779 0.16652393 -0.28449848 0.077017665 -0.39603198 -0.6292516 0.2592298 -0.088226 -0.11781678 0.013444835 -0.43729928 -0.08618178 -0.35229567 -0.5720874 -0.030351434 0.2002162 -0.061220504 0.5987569 0.07697983 0.27162156 0.6325728 0.69119364 -0.15869111 -0.10858074 0.3744329 -0.192907 0.011521042 -0.49937493 -0.22095501 0.48488465 0.36798424 -0.30746424 -0.61083406 -0.52771866 0.029916305 -0.0058408068 0.033101965 -0.4778053 0.3305609 -0.26291943 -0.25678664 -0.28571132 0.25150222 0.56701 -0.54706305 0.22098355 0.20343332 -0.30519003 -0.2704594 -0.32631078 0.14468421 -0.42669988 -0.034431543 0.07955829 0.21497056 0.60519147 -0.30415648 0.051625837 0.15208709 0.37586355 0.5431785 -0.51053697 0.16831237
2959 0.21247426 -0.25630078 0.22456539 0.1457194 0.10615075 -0.288497 0.14880757 0.16181223 -0.11325127 -0.203091 0.29476282 -0.8012603 -0.59921694 -0.64376664 0.032092504 0.2352819 0.069247834 -0.32499102 0.07215438 0.13214555 0.19498333 0.7393875 -0.10188381 -0.50280654 -0.7231041 0.30690968 -0.7142762 0.59585 0.57358205 -0.17122719 -0.124932505 -0.15857075 -0.7438231 0.4461343 -0.0016698937 0.6672778 -0.047367413 -0.4657142 0.36627144 -0.25578845 -0.10676348 0.3840277 0.16759694 0.030535005 0.22515935 -0.5389008 -0.06619356 -0.19066419 0.36304638 -0.12408986 0.2026223 -0.25996402 -0.055140387 0.5502248 0.11142702 -0.1217777 0.61473125 -0.17747039 0.0058977604 -1.01447 -0.08582823 -0.33122483 -0.28363976 -0.034165595 0.29371208 0.25457618 0.06614358 0.19115816 0.031958472 0.33608893 0.45213035 -0.5715954 -0.73021126 0.37741348 0.23793349 0.038150005 -0.47207737 0.29543447 0.2260903 0.18425581 -0.537012 -0.31941548 0.67255765 0.18137078 0.76687855 0.51656955 0.5619588 -0.13328977 -0.033240367 -0.2423159 0.37537682 0.009751882 -0.25555456 -0.7001313 1.060938 0.28908268 0.0022975788 -0.29602277 0.09992613 -0.4042947 -0.51902133 -0.025219213 -0.25377572 0.505927 0.76569015 -0.024324441 -0.9116007 -0.7638518 -0.112566866 -0.21779095 0.053594075 0.15868895 -0.1767318 -0.13920532 -0.10807669 0.3279778 0.41028827 0.70713526 0.004290643 0.40103543 -0.39817554 0.5428111 -0.04922054 -0.0194537 0.15033178 0.0010733764 0.31079555 -0.24335268
527 -0.12057734 0.10862105 0.05805426 -0.0938952 0.032641057 -0.2085184 -0.014973647 0.33084986 -0.74111223 0.11828934 1.0437118 -0.459866 -0.21574727 -0.41409713 0.5768267 0.6817935 -0.083737895 -0.15355344 -0.32636887 -0.022929234 0.6276609 0.90119696 0.09198157 -0.44358346 -0.26546854 -0.027217524 -0.42424175 -0.10881498 -0.23003124 -0.709933 -0.118972436 -0.18734111 -0.23229505 -0.0024582474 0.10018028 0.9480896 0.4187383 0.27150878 0.5101392 0.09402291 0.15050167 0.13461852 -0.5360098 -0.39476627 0.808719 0.17875595 -0.47631553 -0.58704734 0.17440395 0.23400588 0.0537153 0.7999853 0.2659813 0.3080833 0.8593465 0.038413666 0.6595561 0.37446478 -0.112798676 -0.33276284 -0.79495263 -0.12746623 0.64251053 -0.40032125 -0.36779404 -0.6262021 0.31882733 -0.29663324 -0.2610979 -0.6061301 -0.7727845 0.15590313 -0.60852987 -0.03408746 0.13257375 -0.6345922 0.024412327 -0.4532002 -0.54326296 -0.18956766 -0.3263396 -0.46347725 0.5607286 0.37446985 -0.29130495 0.30813995 0.12293234 0.018780617 0.3206924 -0.090913154 -0.27659395 0.04024323 0.096744515 -0.14679125 0.025032515 -0.48614898 -0.06099924 -0.48964158 0.3443208 -0.04643203 -0.19208957 0.031209504 0.19863172 -0.34276944 -0.28793836 -0.44810644 0.23145178 0.24494557 0.02604856 0.30069387 -0.09497074 -0.27459896 0.1556989 -0.14531124 -0.17996946 0.1307229 -0.0570081 -0.18617265 0.3802349 0.25285944 0.17969465 -0.4597855 0.4333469 -0.40488064 -0.08676912 0.07706883 0.23925367 -0.071721405
1196 0.0066728694 -0.116261154 -0.056785397 -0.2193128 0.36702278 -0.23885906 0.03445234 0.4343251 0.19978306 0.16189215 0.7315725 0.04893998 -0.08204821 -0.40903825 0.17039692 0.7920181 -0.3041574 -0.024625203 -0.6010285 0.21317823 -0.37983957 0.38661787 -0.289443 -0.6070857 -0.3009151 -0.060490128 -0.39736253 0.087037876 -0.12186097 -0.026806176 -0.05747549 0.071684696 -0.58054996 -0.031047992 0.18922469 0.9255382 -0.07263163 -0.1451123 0.35394067 -0.69034433 -0.121845305 0.37486637 -0.9121323 -0.30419567 -0.05680989 0.008106241 -0.13592537 0.004231642 -0.26269686 0.06282825 0.83089274 0.8881009 0.26504526 -0.12856725 -0.12331709 0.04620871 0.7758284 0.55096585 0.46263647 0.63247806 -0.8778483 0.15027383 0.04108232 0.39613175 -0.054251093 -0.23282906 0.20741843 0.28422466 0.1045644 0.14933184 -0.5361748 -0.41950208 0.28735113 -0.74630034 -0.23515531 -0.8986712 -0.05798148 0.98215765 -0.6092226 0.51678956 -0.02480851 -0.30926618 -0.09919557 0.78703123 -0.15487331 0.19688123 0.11614526 -0.6138186 0.11806598 -0.17466107 0.12705097 -0.4876023 -0.25738537 -0.0002661522 0.24150054 -0.03895026 0.11459183 -0.20391516 -0.3788788 -0.41189843 -0.1297059 -0.43209475 0.0126057975 0.24999352 0.54651874 0.13339719 0.033246 0.07348778 0.47803852 -0.021987798 0.32270014 -0.38735598 0.20834206 0.110350505 -0.30802807 -0.3568738 -0.23645161 0.30112088 0.11159034 0.094797276 -0.02276551 -0.6270422 0.2978638 0.14444536 0.42993423 0.113931574 0.29974723 -0.14542884
110 0.4128162 -0.0810761 0.37638104 -0.42540026 0.22902447 -0.25280198 -0.12052956 -0.4997652 -0.2744398 0.27303576 0.63952607 -0.40245625 0.4633778 0.19441983 0.99176973 0.5083793 -0.3442682 0.06674443 -0.2267894 0.6425785 0.47963375 0.2876833 -0.10202438 -0.3183278 -0.80154675 0.22865474 -0.20650102 -0.4510639 -0.16726567 0.39888042 -0.19352567 0.45088968 0.02734748 0.47897252 -0.15295355 0.13985832 0.5199845 -0.09110517 0.34833294 0.16013558 -0.1309082 0.48149744 0.00593228 -0.21803987 -0.21754187 -0.25249332 -0.53513867 -0.17031407 0.0089123 -0.10966142 0.53258497 -0.11202268 0.008850672 0.64751846 0.5214657 0.15704176 0.47529826 -0.11879738 -0.5579168 0.14615804 -0.35230288 -0.16027753 0.1526407 -0.06503667 0.55874217 -0.056744915 0.22724782 -0.62877977 0.3665263 -0.07235607 -0.0044839564 0.62558615 -0.41182932 -0.4799578 0.04866255 -0.06763553 -0.1152669 -0.10044144 -0.7418057 -0.10435338 -0.10699796 -0.17111823 0.0037279625 -0.40433958 0.7165806 0.39326677 0.6699104 -0.7170937 -0.15127787 0.41993695 0.09822225 0.025017835 -0.49225536 -0.25314578 0.78221875 -0.1795857 -0.5129285 -0.11988004 -0.19292256 0.11838694 -0.06259472 -0.56683636 -0.120548844 -0.16565292 -0.06264961 -0.0074854176 0.5640884 0.8695059 0.11546977 -0.6317213 0.2438766 0.08761932 -0.2888817 0.40323442 -0.0065036933 0.2772574 -0.696735 0.066952184 0.41880205 0.58049345 0.00847611 -0.60365754 0.1859457 0.21149011 0.31951606 0.08980451 -0.45544612 0.060582895
1198 -0.27412617 0.1314998 -0.041070424 0.11824014 -0.5527854 -0.036203112 0.23982006 -0.2153733 -0.019804318 0.40304458 0.0066022333 0.18049748 -0.16284855 -0.5332229 0.41261694 0.7010482 0.18440723 -0.26038024 -0.34716052 0.23378152 -0.225005 0.19605382 -0.30197963 -0.8942933 0.25649688 -0.77975726 -0.14858688 0.0063850875 0.20176181 0.6504792 -0.017056968 -0.044203497 -0.48965093 -0.10493861 0.06830707 1.0561789 0.6460773 -0.08268393 0.3248542 -0.3738983 0.3278378 0.3856773 0.3161551 0.044904582 0.42557433 0.038192406 -0.3462923 0.1469024 -0.19462512 0.32227063 0.66625273 0.67450225 0.35047516 0.21899621 0.44448492 -0.18864527 0.45716402 0.65664333 -0.043356463 0.020533467 -0.5871463 0.019103352 0.42085174 0.60010076 0.50289136 -0.7764989 -0.035154916 0.13702905 0.3695405 -0.24119367 -0.2473715 -0.0010930527 -0.42051807 -0.25538027 -0.34363848 -0.08880396 0.3655031 0.5824686 -0.22947064 0.7659449 -0.01780059 -0.027962314 0.20737049 0.50350213 0.48632032 0.20950945 0.90038615 -0.38188273 -0.50511634 0.19215931 -0.20730832 -0.8650989 0.00083030295 0.04395868 0.49236476 0.31983188 0.23606062 -0.058687348 0.19783343 -0.32177547 -0.54933876 -0.37067074 -0.21049258 0.18630391 1.014309 0.06968779 0.02043794 0.6653832 0.7609252 0.18181796 -0.061690304 0.07493206 -0.17899492 0.008938569 -0.0651827 -0.84921825 0.29105112 -0.13490844 0.017464943 0.21203722 0.008615822 -0.38112366 0.11200926 0.068439 0.33723933 -0.1453044 0.025593845 -0.32593408
50 0.6175849 -0.48322332 0.056493245 -0.3979346 -0.3448829 -0.18145463 0.114772186 -0.51556987 0.2526066 0.33728707 0.24829656 -0.40950152 0.20436879 0.25705987 0.14312854 0.44472194 -0.6315434 0.44750437 -0.07349105 0.08934369 0.53018403 0.22728501 -0.3264256 -0.2440407 -0.1495744 0.20704609 -0.49813452 -0.42974302 0.18861714 -0.054095414 0.12616663 0.36290374 0.07808584 0.30381772 0.02797608 0.7676106 0.27065563 0.17563544 0.32645983 -0.15935844 -0.15597242 -0.14200497 -0.6253268 -0.003004884 0.46646318 -0.5166317 -0.24729553 -0.4332319 0.5949974 0.20717265 0.2206522 0.5504272 -0.45497265 0.56196946 0.4758144 0.23665869 0.53318775 0.3465423 -0.7069279 0.4693075 -0.5376353 -0.40320614 -0.07457582 -0.14149308 0.20865583 -0.6452353 -0.049225956 -0.56557584 0.56403255 0.12361726 0.007439065 0.13460672 -0.40197405 -0.47505024 0.107653566 -0.4933467 -0.4457536 -0.16454607 -0.11196602 0.32003158 -0.19848113 -0.48593307 0.30462605 -0.12684017 0.76123434 0.40046796 0.49762556 -0.55060494 0.08675787 0.5026315 0.045896973 0.39476466 -0.09106267 0.05097218 0.5423459 0.2741473 -0.19360389 -0.31737006 -0.40816537 -0.17301793 -0.16743772 0.2121875 -0.16877264 -0.51215214 -0.64555687 0.27892104 0.0516516 0.8165774 0.1384644 0.13064519 0.067885086 -0.14735457 -0.3195255 0.8159481 -0.5458542 0.115218155 -0.39759868 0.38930228 -0.1259678 0.6682532 0.34020603 -0.35411018 -0.075448565 -0.25379118 0.070718616 -0.02292019 -0.24463038 0.21530189
858 0.14007448 -0.40736514 -0.48679528 0.5834626 0.12344443 -0.63902414 0.06635383 0.28482044 -0.34690434 0.53762615 0.7035352 -0.67282563 -0.06529441 -0.468923 0.3936333 0.29870918 0.69056964 0.86518574 -0.23932824 0.3429431 0.43092284 0.74673426 0.55284655 -0.21135172 0.23703904 0.18494618 -0.54098403 0.11108752 0.15223192 -0.6235009 -0.22378334 -0.46177536 0.27113828 0.34382197 -0.19351679 0.45264536 0.1937226 -0.5938706 0.45845342 0.021335488 0.28254983 0.17247011 -0.28633985 0.12755656 -0.099326745 0.05430626 -0.31680605 -0.26212722 -0.3559657 0.17081769 0.008222688 0.3217686 0.3162041 0.5205192 0.06803163 0.0596563 0.31448412 -0.12365145 -0.59615135 0.37706116 -0.18477406 0.046473786 0.37768823 0.08596464 0.24704239 -0.346573 0.6111904 -0.14152348 0.098719895 -0.25417596 -0.580128 0.09707494 0.26142505 -0.2671058 -0.47596323 -1.0377053 -0.290058 0.15871257 -0.34589782 0.4593405 -0.8790088 -0.048405048 0.10407338 0.20854841 0.31602803 0.8098471 0.24731569 -0.23587953 0.10890138 0.38340142 0.6349079 -0.4610496 0.051468037 0.6979778 0.5951844 -0.004701149 0.1546496 -0.74158436 -0.23786668 0.17284983 -0.29568163 -0.32295027 -0.300477 -0.2861574 0.10892942 -0.80714303 -0.017814351 0.09020605 0.46777198 0.029693492 -0.30579588 -0.40094543 0.15232842 -0.014454864 -0.47801143 -0.24022867 -0.28972015 -0.106957205 -0.12935138 0.09036523 -0.23261492 -0.54092485 -0.17039162 0.322338 0.47929457 0.319003 0.10132505 0.12074916
2858 0.06562435 0.08931501 0.14046094 0.57255673 -0.03200959 -0.062423926 -0.15418084 0.16691196 0.38969192 0.13732228 -0.2332403 -0.7805016 -0.36656323 -0.73915714 0.31899357 0.24302241 -0.32392913 -0.18793207 -0.55540836 -0.2302592 0.11808078 0.59683573 -0.7213995 -0.643032 -0.12461827 0.14265743 -0.3439001 0.5797343 0.7994561 0.1978508 -0.09833866 0.2933479 -0.27596965 -0.55270386 -0.3480913 0.33763295 -0.47269282 0.49062076 0.3105358 -0.021078106 0.010035393 0.08508161 0.27690986 0.06774682 0.26737815 -0.24939048 -0.38251856 0.03823448 0.91625977 0.22592217 0.4996389 -0.38798603 -0.18697247 0.019437268 0.19643271 -0.349252 0.766878 -0.2299556 0.08320448 -0.82286435 -0.29497117 0.13345139 -0.2785533 -0.4280698 0.038746882 0.22881693 0.005840667 0.0374645 -0.12022202 -0.8725579 0.5149396 0.2922823 -0.8041567 -0.06925949 1.008685 0.40971774 0.38926685 -0.22251317 0.093268454 0.59585845 -0.12526388 -0.5561986 0.19367026 0.025189206 0.08528881 0.28801298 0.5299334 -0.0041809576 -0.033454813 0.17524467 0.5296466 0.07296582 0.20874162 0.11364067 0.4828762 0.94121873 0.061982796 -0.6739977 -0.45782447 -0.19076356 -0.15434751 0.26313055 -0.22285551 0.24632485 0.9734314 -0.52915907 0.30046037 -0.15857176 0.77285814 0.31576782 0.21942523 0.22622548 0.4143801 -0.04940463 0.2820178 0.29090494 0.14639686 0.2423694 0.36921006 -0.032557815 -0.27019998 0.22944425 0.49142882 0.39499977 0.03033443 0.3434407 0.27157152 0.032925542
1210 0.17304298 -0.49946067 0.2574061 0.46412846 0.27005467 -0.029136587 0.07495107 -0.018590696 0.36550972 0.016938755 0.06912839 -0.07931625 -0.14000733 -1.0146292 0.16148055 0.6910335 -0.57609224 -0.6454359 -0.04149436 0.06264326 -0.32873374 0.83779275 0.2932211 -0.6668637 -0.0080815395 0.29637524 -0.32361168 0.35035178 0.029308258 -0.523388 -0.56749433 -0.10609483 -0.6724556 -0.45580825 -0.31451675 1.0070086 -0.069077216 -0.29303944 0.34017402 0.044294305 0.1015279 0.34790802 -0.15134245 -0.41271684 0.21513705 0.24765077 -0.35850066 -0.37590295 -0.13941048 -0.43875992 0.5295937 0.8458038 0.021910425 -0.0636126 -0.005714156 -0.31285405 0.5656563 0.1454541 0.13666059 -0.06997593 -0.71660036 0.10021736 0.6015769 0.9556131 0.028112223 -0.49660066 0.6282101 0.6514407 -0.022782154 0.3487296 -0.07552472 0.011816004 -0.015770504 0.17437196 -0.36372352 0.20300862 0.27709407 -0.001380025 -0.30830178 0.29632115 -0.028862016 0.18192197 0.12800306 0.7317275 -0.24529295 0.08434301 0.3463956 -0.83195794 -0.38250893 -0.087111734 -0.08822366 0.5008664 0.3441074 0.49727863 0.30744475 -0.120553285 -0.2764405 -0.5796894 -0.050865967 -0.13437372 0.24962978 0.00028415985 -0.22282088 0.21869859 0.7733108 0.25659373 -0.06545195 0.26435214 0.36448207 0.37956902 -0.00894663 -0.26191992 -0.38144302 0.37330487 0.106868856 -0.22862862 -0.081067584 -0.17193078 0.49393436 0.8133882 -0.071905755 -0.9160649 -0.18809104 0.22244999 1.1382244 0.193602 -0.07819869 -0.21848293
589 0.5198289 -0.15980889 -0.1719741 -0.10879745 0.052685432 -0.31685242 -0.3075934 -0.49697894 -0.4120202 0.5255105 0.47090486 -0.56530964 0.010321302 -0.59661293 0.17946233 0.48769718 -0.24033664 0.27835488 -0.5992595 -0.5450579 0.24718049 0.7616125 0.25267667 -0.5246866 -0.30631536 -0.039050967 -0.51450473 -0.092216074 -0.27014562 -0.12753353 -0.92592555 -0.12980138 -0.21735935 -0.4677738 0.48684627 0.7463363 0.8755816 -0.06975222 0.25098407 0.0019160537 0.153852 0.10353561 -0.7872871 -0.31942138 0.3289844 0.12796123 -0.7984216 -0.20468225 -0.17799719 -0.48129553 0.0016236234 0.30860177 -0.09042502 -0.0474424 -0.06602613 -0.39217293 0.40941754 0.037890088 -0.122133 -0.11385952 -0.40270805 0.31550974 0.4025355 0.042505734 1.1288978 -0.7087501 -0.28475994 -0.54525733 0.1806117 -0.4491851 -0.10853221 -0.08189342 -0.420766 -0.43987265 -0.41020408 -0.65127546 -0.026905645 -0.22891305 -0.20886101 0.5335925 0.2577529 0.13262159 0.3761691 0.65074766 -0.0603408 0.24820355 0.60566145 -0.2712216 0.391632 0.21891898 -0.30333117 -0.053892702 -0.34845895 0.46980837 0.1972358 0.14210755 0.38229066 -0.060064744 -0.037492935 -0.028266737 -0.17966314 0.033064637 -0.43268844 0.5376918 -0.032095347 -0.76725423 0.28863588 0.09191149 0.0936143 0.10841728 0.06507702 -0.4614806 -0.47352642 0.124278516 -0.55715626 0.21587476 -0.39393285 0.12293394 0.110805854 0.07054195 -0.08629982 -0.40396312 0.4111089 0.20689829 0.07252006 -0.4902892 -0.66033626 0.4485994
1 0.8301665 0.42386624 0.74911654 -0.047272146 -0.33367175 -0.45159745 -0.067571685 -0.093184516 0.5910983 0.75733066 0.31182033 -0.30281714 0.24846262 0.610893 0.4018196 -0.24743342 -0.45294234 -0.21750587 -0.8759588 0.41542864 -0.08831323 0.49467143 0.4555992 -0.4825255 -0.21765816 -0.2838437 -0.34733304 0.39862505 -0.015866624 -0.32238796 -0.3797727 0.17235516 -0.20064731 0.030199928 -0.30991098 0.21676286 0.10698192 0.34472302 0.69236386 -0.18372878 -0.41730642 0.7891431 -0.22951569 -0.49077722 0.27718014 -0.8076658 -0.087816 -0.5728446 -0.115292385 -0.34753832 -0.16878311 0.3776045 0.17573136 0.50351304 0.047097288 0.2456199 -0.0840291 0.5044505 -0.7549524 -0.33348784 -0.24927363 0.58059454 0.12687254 0.2562569 0.6869094 -0.51743054 0.0749653 -0.031208053 0.7414347 -0.3775555 -0.14483286 0.41763225 -0.77989954 -0.41353923 -0.0058827903 0.2543832 -0.44971135 0.01085408 -0.7533406 0.42187926 -0.0999034 0.024511343 0.5939436 0.15587884 0.15887323 0.4459408 0.19628336 -0.98460376 0.42340803 0.69022584 -0.2147479 0.36120328 -0.1709833 0.16885628 0.0053249104 -0.15412626 0.29039446 -0.5437551 -0.08005485 -0.13400395 -0.8119749 0.37020305 -0.016246172 -0.2925596 -0.7834237 -0.3167825 0.33033338 0.835515 0.4490185 -0.2870973 -0.10215642 -0.7237974 0.05324032 0.7753629 -0.4679078 -0.27245292 -0.13516448 0.34225512 0.64311254 -0.14417487 -0.050248604 0.07152859 -0.011009107 -0.19218369 -0.0533229 0.297643 0.0054645515 -0.28670976
4993 -0.26625043 -0.083897054 0.19177374 0.2679001 -0.09678039 -0.45926538 0.81703615 0.11124725 -0.68129915 -0.20959401 0.15555078 0.5561834 -0.42161635 -0.5229141 0.94200605 -0.014458833 0.026237665 0.13190404 -0.27854845 0.38325882 -0.30204117 0.80230147 -0.6017646 -0.39232895 -0.33930254 0.11340291 -0.19277643 0.5146796 1.0062381 -0.045050498 -0.023071006 0.31777397 -0.43489295 -0.56766874 0.15283845 0.66288835 -0.1469213 -0.44288152 0.2767097 0.47551122 -0.23212971 0.5666706 0.61717945 -0.35512966 0.15830947 -0.29153544 -0.05313869 0.1741999 0.39152086 -0.1687577 0.11149594 -0.46546307 0.63531715 0.1699402 -0.6954606 0.16106516 0.54065627 0.20579648 -0.12450118 0.41954684 -0.3371476 -0.30100968 -0.51043415 0.78826946 0.60364264 0.079659075 -0.9671001 -0.6252468 -0.30899733 -0.2443815 -0.3594566 0.08061451 -0.827107 -0.35097978 0.44525638 -0.43393204 -0.6375523 0.70063263 0.26644656 0.1559761 -0.27631986 -0.4101294 0.36365587 0.57351804 0.090071075 0.2527814 0.39840856 -0.15632106 0.26049557 -0.08613448 -0.21623789 -0.4727913 0.19212803 0.095807165 -0.18762869 0.5496343 0.009324061 -0.2184428 -0.19206771 0.24989292 -0.27213016 0.0972075 0.09412627 0.2216694 -0.05012591 0.4190829 -0.499114 -0.5146729 -0.046002805 0.047889844 0.5426889 -0.13065931 0.5890039 0.263126 0.20684336 0.21685758 -0.8261187 0.117984965 0.3044159 -0.52411807 -0.01187248 -0.8507769 0.06941518 0.42494476 -0.05155405 -0.6236338 0.102507 -0.2910518
480 0.22335605 0.07781702 0.3417826 -0.2803762 0.17276065 -0.07672638 -0.037589163 -0.05771369 -0.18520853 0.7257365 0.34707808 0.1953734 0.24593788 -0.81469995 0.49747396 0.21854477 -0.28203538 -0.09381605 -0.06797248 -0.6643466 0.46051148 0.48094088 -0.44072786 -0.69925106 0.12949958 -0.009736808 -0.11222003 0.23189501 -0.026046028 -0.2510264 -0.5300421 0.1223344 0.011644956 0.10943831 -0.29062954 -0.0015782738 0.39723325 -0.04495734 0.3589581 -0.50465924 0.19053727 0.5740236 -0.9254733 -0.011668832 0.6569922 -0.1771049 -0.3894029 0.17171255 -0.104336895 -0.25988767 -0.11375131 0.48027012 0.20325226 0.7573599 -0.03850026 -0.81974506 0.60293776 0.3174189 -0.24384502 -0.0626022 -0.5697994 -0.064436 0.30337554 -0.2477653 0.64638394 -0.2115266 -0.10849827 0.0010455641 -0.31619564 -0.6214883 -0.2432868 0.2190605 -0.15871374 -0.2941685 -0.51191676 -0.10331942 -0.19025686 -0.5184367 -0.6168521 -0.03902507 -0.47969872 -0.19849768 0.49263856 0.7977627 0.12633355 0.50936157 0.9996115 -0.6096555 0.33032206 0.03289615 -0.15480953 0.25432613 -0.37686267 0.1757912 0.09123632 0.61596483 -0.43407488 -0.12805024 0.20559883 0.098023735 -0.38719627 -0.13984981 -0.25449914 0.19406664 -0.37557343 -0.31948277 0.20071082 0.5704103 0.28475055 0.5837141 -0.092721775 0.14041704 -0.4902547 0.4328393 -0.391527 0.08530343 -0.7237856 -0.42176908 -0.20527968 0.36001328 -0.48308098 -0.32054228 0.085106164 -0.23400402 0.2337828 -0.40920886 -0.3848434 0.7006697
2028 0.15165463 -0.29308584 0.6321944 0.50115097 0.47667432 -0.52554274 0.014362269 0.29093364 -0.54801077 0.0586944 0.31484437 0.034612466 0.20144778 0.00018216466 0.2042038 0.39567772 0.19375828 -0.4553985 -0.08954898 0.5479705 0.39453048 -0.100166455 0.5660202 -0.2889137 0.1365399 0.78055286 -0.09634548 0.6548958 0.86764973 -0.32627556 -0.041122295 0.032665547 -0.3841426 -1.0297168e-05 -0.68428105 -0.29425338 -0.27160683 -0.22871262 -0.45640597 0.3002273 0.19595738 0.18168907 0.1289498 -0.37429887 0.522429 0.37282205 -0.640961 0.5934187 0.4680065 0.0219631 0.4251789 0.61474407 0.017222097 -0.22542542 0.008957331 -0.025290681 0.8872289 0.5470341 -0.0102839 -0.28332677 -0.3024867 0.11957859 0.06354856 0.06028109 0.5644296 -0.3074792 0.281975 -0.18139505 0.5267754 0.42140287 0.18748808 -0.35601005 -0.23433839 -0.0089267725 0.12879016 0.21738733 0.25697124 0.01965422 -0.34304062 0.14275497 -0.13197428 -0.6722316 0.14462003 0.6488465 0.19085968 0.66578686 -0.21589014 -0.74807876 -0.76539165 -0.09663512 -0.2555813 -0.14657576 0.41665488 -0.026500033 0.09432933 0.57669234 0.0946946 -0.115233265 0.28137976 -0.3792988 -1.1853281 -0.22807996 -0.113896675 0.47328863 0.22754526 -0.11120586 -0.0010561283 -0.6370403 0.45807683 -0.09385821 0.09552729 0.4585733 -0.49509728 0.22532988 -0.8372504 -0.24010886 -0.18878242 -0.0810495 0.4407276 0.05884714 -0.83576494 0.34165114 0.48918507 -0.21137746 -0.044338144 0.3799434 -0.51550806 -0.47611463
7153 -0.3092576 -0.5150763 -0.5449795 0.08857033 0.46661815 0.106520765 0.22263037 -0.40507424 -0.77780294 -0.37127873 -0.20789056 -0.2992235 -0.45198575 -0.6115689 0.22625828 -0.041929428 -0.022472667 -0.25139883 -0.608017 1.0293769 0.19192484 0.5228392 -0.25121734 -0.19696133 -1.1623847 0.48033625 0.020410044 0.7615857 0.13205811 0.3304062 0.27448776 0.26224244 -0.3851079 -0.574766 0.013441856 -0.32068172 0.019475283 -0.06260858 -0.08264654 0.31262264 -0.24883555 0.82035375 0.2978173 -0.119787335 0.3885014 -0.29886273 -0.30164355 0.19328167 -0.5701156 0.51259124 0.33734012 0.22393766 0.52310383 0.122539036 -1.0159202 -0.20293014 0.79278207 -0.44164926 0.012132185 0.17532463 -0.286633 -0.38276833 0.3162029 -0.017837815 -0.004187879 -0.8629066 -0.60770166 0.10873133 -0.2380892 0.3039148 -0.116928644 -0.14819618 -0.8930426 0.23727508 -0.047920726 -0.12609918 -0.6553093 0.06811841 0.25907663 -0.17444856 0.37599733 -0.2734847 0.8941611 0.6619681 0.07775479 0.077790625 0.46275526 -0.111892134 0.6872312 0.5723319 0.27712688 -0.20324498 -0.15030178 -0.3668118 -0.19857283 0.30249515 -0.054488085 -0.2068029 -0.41044638 -0.57586783 -0.21585664 0.4390808 0.084125675 0.0015892893 -0.080223724 -0.27845404 0.014345023 -0.44957697 -0.45889264 -0.12217521 0.21741225 -0.2779229 0.10009498 0.28375328 -0.15538913 -0.9556395 0.28767335 -0.028537625 0.041243 -0.06786698 -0.03755545 -0.884909 -0.007243577 0.96318215 -0.278408 -0.45973864 0.034051526 0.33539763
47 0.5380397 0.008928857 0.62533003 -0.3596221 0.051510796 0.0003313546 -0.2733096 -0.35431242 -0.4353028 0.6317075 0.24264885 -0.01891444 0.30766243 0.07304657 0.17207812 0.69077104 -0.17476138 0.24972297 -0.16704312 0.08573646 0.6324184 0.11749085 -0.05954143 -0.75638455 -0.5164922 0.18083425 0.17604774 -0.47262588 0.5282452 -0.026439682 0.05057041 0.24085505 0.0155815035 1.0138115 -0.32997248 0.23071821 0.3471148 -0.06887648 -0.4251716 -0.26285383 -0.15431456 0.6260033 0.09746611 -0.22441612 -0.002978013 -0.2785342 -0.7646894 -0.10901785 0.62628114 0.42816454 0.28856856 0.17037253 -0.13776246 -0.03668216 0.15781854 -0.46226373 0.109281704 0.3806082 -0.45355505 0.24518576 -0.2858622 -0.12708338 0.10086822 -0.46646488 0.5199336 -0.46291476 0.29955375 -0.29046577 0.45141417 -0.16086932 0.3101335 0.024252037 -1.1977683 -0.8049756 0.007649799 -0.62417436 -0.7288463 -0.47576517 -0.7682851 -0.01754633 -0.06141819 -0.14296494 0.31294838 0.0035097997 0.97907376 0.16891247 0.06025916 -0.960089 -0.6270062 0.21126181 0.37187812 -0.26661444 -0.7182352 -0.0013655719 0.5131307 0.014536882 0.06682588 -0.44036224 -0.54529846 0.2018015 -0.1408802 0.5331399 0.026977733 -0.26037255 -0.5600908 -0.21769677 0.11640176 0.7281085 0.3254166 -0.18465379 -0.41705778 -0.060493864 0.082090676 0.2456485 -0.8562543 0.21786673 -0.3638345 0.28925025 0.34050062 0.036737103 0.3239313 0.36253998 0.040808514 0.42745408 0.3706084 0.2619578 -0.23930456 0.2625202
457 0.8205391 -0.26400104 0.12548004 -0.3798375 0.47322682 -0.32314977 0.33955193 0.38037595 0.465593 0.34681025 0.3789969 -0.1708405 0.22437973 -0.105733834 0.62337494 0.8755623 0.20102336 -0.33229405 -0.6518865 -0.23860621 0.8181167 0.5842305 -0.3304207 -0.7178593 -0.35510778 -0.09353359 -0.12181902 -0.18360357 -0.4755572 -0.20319435 -0.02262892 -0.22798264 -0.09694109 0.485275 -0.24520563 0.32158977 0.0986972 -0.50068635 -0.21433362 -0.33849692 0.069244124 0.19785035 -1.0112755 -0.10770558 0.5787936 -0.15420873 -0.6453245 -0.2976674 -0.19889152 -0.775759 -0.4210579 0.5146199 0.3870462 0.3597296 0.5600762 -0.5958896 0.73491985 0.22661525 -0.11640296 -0.2552427 -0.4384579 -0.22842792 0.43128994 0.23976469 0.7639992 -0.70541257 -0.24517885 0.26880294 0.22709924 0.018833812 -0.101467416 0.46342012 -0.78877234 -0.58962 -0.37368408 0.05756107 -0.28830704 -0.6559814 -0.72073936 -0.0852474 -0.6412481 -0.025633365 0.55084884 0.64768976 -0.13776663 -0.010287873 0.43132004 -0.29866245 0.4500199 0.29823017 -0.3144058 -0.109494396 -0.57761407 0.5261681 0.28413102 0.2613552 -0.18252003 -0.016150957 -0.17786412 -0.33616254 -0.056464925 -0.6565911 0.0032084507 -0.17571609 -0.49834862 -0.018594284 -0.2062571 0.27382404 0.28076348 0.080399655 0.11754269 0.0059112837 -0.5687038 -0.39045933 -0.3544798 -0.07161636 -0.23724738 -0.21231855 -0.14813744 -0.05902565 0.042185158 -0.3420431 -0.26297545 0.027788099 -0.24963452 -0.24020179 -0.18857805 0.29613814
608 0.86220425 -0.039482873 -0.15591478 -0.0044117854 0.21229258 0.13116337 0.026464658 -0.18504827 -0.2781506 0.5568481 0.47557256 -0.18780282 0.5372257 0.4172852 0.4678023 0.4099306 0.03533443 0.58179736 -0.37228218 -0.005470457 0.5265902 0.575477 0.1428599 -0.3023475 -0.044719838 0.3060935 -0.70436317 0.50466454 -0.50077415 -0.6545244 -0.7956784 -0.20920555 0.12190895 0.17922609 0.052881427 0.8797305 -0.12224388 -0.17251979 -0.13374789 0.29474115 -0.12415386 0.31127837 -0.44247928 0.5512723 0.32910886 -0.10274908 -0.26091465 -0.07023999 0.13862947 -0.067879625 0.10806692 0.51182395 0.37528458 -0.64533156 0.44627097 0.073096715 0.4589875 0.5885801 -0.917387 0.3678289 -0.36267298 -0.121710174 0.39081344 0.16662596 0.40026122 -0.21234317 0.30494407 -0.002124553 0.013550833 -0.5551338 -0.42094377 -0.29454044 -0.38337633 -0.44134548 -0.21586984 -0.7904379 -0.09061955 -0.3986392 -0.5070877 0.26695308 0.0872605 -0.18665674 0.43226528 0.18637046 -0.15305042 0.2727958 0.22324936 -0.14234552 0.06823559 -0.0065067094 0.536476 -0.69741935 -0.38004515 0.81173253 0.2268228 0.016481545 -0.4922755 -1.0288787 -0.118236385 0.34782207 -0.5484497 -0.680309 -0.16332743 -0.11859866 -0.2757852 0.15548535 -0.2775102 0.33044958 -0.046346184 -0.17703757 0.07754955 -0.5323465 0.15629537 -0.4227025 -0.6825581 0.3644955 -0.064594805 -0.035387024 0.4671732 0.15584916 -0.47415647 -0.29400876 0.22904216 0.13377573 0.51441884 -0.43475303 -0.06932901 0.27211037
5952 -0.014832211 -0.5141319 0.6976686 0.1303933 -0.1579782 0.08109394 -0.08890775 0.22506496 -0.5945508 -0.29975423 0.040838916 0.43402678 -0.7459733 -1.1302987 0.8577813 -0.05398691 0.33862162 -0.17567496 -0.37372386 0.2676875 0.16582423 0.4067176 -0.18818396 -0.16683549 -0.7430163 0.64677036 -0.310123 0.05995927 0.17523263 -0.14061189 0.63635725 0.32954603 -0.89029187 -0.70883894 0.0024774186 0.121944 0.26993144 -0.123854004 -0.1511523 -0.04282221 0.11883308 0.840029 0.36735559 -0.68324155 0.2579275 -0.565209 -0.47132975 0.42661184 -0.33047724 -0.0803696 0.43399122 -0.3794712 0.9118231 -0.112504765 -0.60574913 0.33187053 0.4608854 0.2514219 0.1483652 0.3108726 -0.459506 -0.21591455 -0.13176002 0.65954506 0.33293378 -0.17383824 -0.5361592 0.11278105 -0.44177148 -1.1128846 0.13673143 -0.41430274 -0.57377166 -0.06426725 0.24348657 -0.4466052 -0.4459591 -0.32443926 0.54832894 0.40098247 0.28601325 -0.3198079 0.3421638 0.38371044 0.078049265 0.52094346 0.65610546 0.5723853 0.83532804 0.35967493 0.0113476785 -0.3343914 0.39818695 -0.15081513 -0.41645178 0.15881503 -0.07256838 -0.028427271 -0.074587926 0.32815668 -0.3707523 0.5335706 0.17355388 0.2740367 -0.17784862 0.2849546 0.112000935 0.26334232 0.35587856 -0.4810465 0.36246392 -0.29241204 0.54023504 0.44907174 -0.046865933 -0.36951977 0.29978877 -0.028863711 0.33907977 0.02275945 -0.5951905 -0.799031 0.22778067 -0.3237125 -0.20097661 -0.52181065 -0.017796192 -0.57721514
150 0.3786278 0.35255185 0.291738 0.13047019 -0.13351671 -0.1259462 -0.22021692 -0.07562852 0.7953462 0.23326044 0.61966807 -0.286697 -0.11556544 -0.115281664 0.61528593 0.6726912 0.061467856 -0.53780866 -0.22907118 -0.02242858 0.620019 -0.08798195 -0.12149075 -0.365668 0.13921282 -0.1410099 -0.465335 -0.3350666 0.66706306 0.32116327 -0.0035041736 0.23748891 0.40653625 0.32782438 0.30572516 0.2932741 0.11104465 0.034677 0.20366935 0.516241 0.06502985 0.42003894 -0.4802356 -0.35978687 0.50886196 -0.40035102 -0.2973217 -0.3112277 0.32835776 0.5702818 -0.004845295 0.5261874 0.0063134916 0.8152801 0.6894349 -0.18231115 0.44012257 0.30910888 -0.75281614 0.2214135 -0.45193374 -0.2312697 0.5942448 0.3205712 0.36085176 -0.33338544 -0.0026781736 0.015965471 -0.24133945 0.22399293 -0.2655404 0.039586067 -0.61994755 -0.40558162 0.27363554 -0.40224364 -0.34968317 -0.256064 -0.726125 0.1788601 -0.20932646 -0.29677266 -0.1709111 -0.20283084 0.8064616 0.42646617 -0.17312436 -0.6862111 0.4543804 0.7667811 -0.059349097 0.30875993 -0.67728335 0.29998857 0.4203814 0.42813006 0.2047518 -0.4699094 -0.0047298116 -0.036903538 -0.27383834 -0.31034636 -0.6123347 -0.28371528 -0.3636542 0.032196395 0.8443714 0.8821327 -0.1955632 -0.765349 -0.20625605 -0.1059671 -0.35129023 0.5702467 -0.34236166 0.43629137 -0.31801108 0.19595118 0.37564546 0.009438788 -0.3486548 -0.11121097 -0.24644707 0.27089 0.55719894 0.18811554 0.0350783 0.008149924
2762 -0.5822923 -0.1565966 0.311977 0.29200777 0.13741839 -0.67496324 -0.2288693 -0.10804009 -0.70091045 0.41684002 -0.11914095 -1.1031076 -0.42872965 -0.5549223 -0.376656 0.5789549 0.04532601 -0.24952194 -0.5950556 0.3298177 0.31575564 0.32674077 -0.85095745 -0.099123135 -0.33221117 0.5592599 -0.3152525 0.75209665 -0.0074684042 -0.60483044 -0.02774 0.28563148 -0.55601835 -0.11521206 -0.26441258 0.17352544 -0.25960085 -0.23489082 0.23273695 -0.33246064 -0.4287907 0.40987614 -0.25323215 0.41747454 0.34064817 -0.28599152 0.03628865 -0.03104439 -0.18732682 -0.24311505 1.1390758 -0.24752326 0.4498723 -0.35159367 0.17493862 -0.18645388 0.47088265 0.26830974 -0.24391349 -0.4325424 0.5492172 0.39119273 -0.5089105 -0.12924965 -0.08830411 -0.18066813 -0.06480056 0.041969527 0.2670079 -0.43974403 0.35134915 -0.8110829 -0.15059161 -0.19184601 0.46559194 -0.19542888 -0.36580423 0.3925924 -0.23924944 1.0699404 -0.40212578 -0.39214215 0.3003186 -0.28127465 0.78970987 0.47867364 -0.067221396 -0.4907672 -0.043271285 0.094025664 -0.04339776 0.2419925 0.3082365 0.36152276 0.29948205 0.6839719 0.21709609 -0.7001298 0.6040988 -0.56277454 0.041892115 -0.2323484 -0.79308224 0.22903253 0.8189498 -0.36758372 0.2207705 0.0077228714 0.43762577 -0.2030641 0.69421285 0.4950626 0.2722142 -0.15979575 -0.14171574 -0.44539076 -0.63739884 0.18718204 1.0590849 -0.006077438 -0.1896495 0.31419724 -0.18436132 0.30048138 -0.18276003 0.10631804 -0.18558079 -0.40987504
4226 0.7874566 0.10678501 0.60599744 -0.46032703 0.15688622 0.08324589 0.16256222 -0.1766772 -0.3401663 -0.25417143 -0.08725035 -0.3449315 -0.5956593 -0.30021894 0.906639 0.90299964 0.041482013 -0.091456585 0.0645374 0.67240155 0.50210756 0.8424426 -0.7011251 -0.15235937 -0.7920901 -0.19790177 -0.10569423 0.84618574 1.2819619 -0.1611464 -0.08904462 0.15156375 -0.19316399 0.5692113 -0.24725576 0.46279812 0.1565491 -0.33810186 -0.14160675 0.30900708 -0.57291126 0.038855314 0.03770579 -0.034914445 0.53414494 -0.21776907 -0.04442169 -0.17657022 -0.46817595 -0.22073942 -0.06281819 -0.49348435 0.3323941 -0.2996498 -0.13721947 0.5989777 0.042347785 0.30058843 -0.39318952 -0.6871623 -0.7116134 -0.04299581 0.1908613 0.4782388 0.2755162 0.49093637 0.41508502 -1.0940385 0.20752046 -0.56703305 0.09288991 -0.016067166 -0.4789629 0.3755048 0.6689842 0.19360712 -0.2215348 -0.047693815 0.671797 -0.17620823 -0.17298047 0.015533239 0.08650454 -0.26516944 -0.14372396 0.87140864 -0.06506183 -0.3264715 0.3608807 -0.078762 -0.018602695 -0.3309648 0.58526456 -0.1367762 0.6585138 0.67876536 0.024105811 -0.5027596 0.23327933 -0.56432426 -0.24369717 0.80454314 0.28654408 -0.01890751 -0.10467096 0.3448775 -0.34653267 -0.33963922 -0.356077 0.16210766 0.0008649978 -0.41488543 -0.19796893 -0.017104683 0.20265575 -0.18980536 0.5171972 0.40142876 0.2838339 0.4306132 -0.13381226 -0.4208743 -0.43367758 0.46343982 -0.5332277 0.4858231 -0.46862236 0.032406136
1270 -0.48772267 -0.3380978 -0.13254394 0.43656677 0.394752 -0.40349954 0.060772933 -0.24802281 0.07154184 0.21807039 0.008903379 -0.2974455 0.50786877 -0.22730778 0.6072546 0.6595774 -0.10445633 -0.052473843 -0.052325714 -0.34939042 -0.22528724 0.893519 0.24524593 -0.24259526 0.68582517 0.1522835 -0.36201626 -0.3286645 0.5177017 -0.14654832 -0.093771875 0.40921956 -0.18775316 0.0847684 -0.45771784 0.30449846 -0.16506797 -0.49263352 -0.12089852 0.19233046 -0.0085561965 0.3902809 -0.2987748 -0.801831 1.1685934 -0.2227868 -0.5530109 -0.22623035 -0.16150045 -0.2741519 0.36799473 0.36793786 0.21762677 0.30346105 -0.33704746 -0.09639299 0.33270073 1.2630067 -0.11358901 -0.23635972 0.2753873 -0.32834607 0.63365185 0.6237778 0.28706786 -0.27753395 0.090848446 0.46139783 -0.32433376 -0.1793568 0.016774533 -0.5479668 -0.20243277 -0.21100208 0.36807245 -0.40406486 -0.053734053 -0.042893007 -0.60216635 0.34437698 0.69441175 -0.00017986374 0.6154388 0.31286624 -0.21937002 -0.6097948 0.5375061 -0.084728956 -0.029406011 0.6109269 -0.19278963 0.13525088 0.5850865 -0.16012391 0.77916 0.24173729 -0.06008946 -0.080241844 -0.0017688475 0.31821916 -0.08151981 -0.39346898 -0.34141544 0.53345734 0.6066229 0.37486482 -0.5437118 0.5812245 0.26957086 0.4835242 -0.14090699 0.09921858 -0.21116598 0.23894975 -0.69090766 -0.48181006 -0.06284134 -0.60904276 0.8695667 -0.25920734 0.31126043 -0.9829942 0.51614904 0.84506536 0.3947479 0.38824165 -0.021548929 -0.157255
32 -0.040113628 -0.30392554 -0.17488676 0.63985795 -0.055676043 0.25219133 -0.15990703 -0.6308593 -0.28292978 0.90489024 0.44578892 -0.08312334 0.8548158 0.48113137 0.053156886 0.4000785 -0.65254194 0.27741098 -1.0121651 0.58591205 0.70814806 0.17073536 -0.2642254 -0.25998303 -0.6836222 -0.12829123 0.0026029367 -0.14001933 -0.0605213 -0.1855781 -0.35924798 0.55720323 0.30939245 0.4106762 -0.0005809413 0.09360883 0.098817185 0.55182433 0.29325894 0.1366703 -0.38499996 0.3489297 -0.4398252 -0.34881315 -0.47514763 -0.18179132 -0.2908475 -0.85547847 0.3594002 0.40142825 -0.041400556 0.48366624 0.1630827 0.5531409 0.26027665 -0.17530364 -0.17126825 -0.099353604 -0.5379446 -0.09058384 0.2421317 -0.25585416 0.8120092 0.17603438 0.48913583 -0.4204533 -0.2026595 0.013249233 0.014152855 -0.062042646 -0.2673494 -0.13405651 -0.43927917 -0.1960156 0.1879747 -0.7384427 -0.607119 -0.46429572 -0.4032066 0.43388543 0.15545402 -0.21137886 0.73319995 0.39895278 0.4041535 0.69458914 -0.021944443 -1.0627993 -0.19104378 0.027141398 0.103373304 0.2512036 -0.26404288 0.41510764 0.35539547 -0.64277864 -0.12167877 -0.45088553 -0.4046473 -0.23787615 -0.46758154 -0.46902412 -0.78291976 -0.54783 -0.41354188 0.09909701 -0.08172144 1.1241484 0.7038907 -0.76711166 0.07765105 0.19076368 0.32260337 0.27052727 0.06329609 -0.68470454 0.16753468 0.48139286 -0.2663519 0.67606694 0.22777116 0.03160865 -0.13555127 0.16035059 0.26023573 -0.04532583 -0.466458 -0.16841961
3578 -0.22349192 -0.24824335 0.394251 0.2236411 -0.4033908 -0.6468457 0.17510203 -0.13587593 -0.5221761 -0.09134663 0.6166252 0.13004161 0.04293399 -0.59234583 0.18370175 0.6355333 0.4549725 0.53103745 -0.49609652 0.10580718 0.33204448 -0.006797718 -0.3800954 -0.5618038 -0.5733846 0.46825632 0.108145036 0.35513294 0.12533437 -0.35178497 0.9247583 0.07525385 -0.67996997 0.068293475 -0.28044823 0.66113055 0.11656108 -0.11543983 -0.17322665 0.34160405 0.28516918 -0.3794013 -0.3590193 -0.35559982 0.24144705 -0.32186425 0.2576487 0.2464087 0.04758162 0.33406147 0.4199086 -0.65977037 -0.48957285 0.17986403 -0.31633535 -0.41141164 0.9397822 -0.029511081 -0.58910424 0.023217129 -0.685359 0.34405074 -0.75405973 -0.22783683 0.16932705 -0.06033668 -0.40229696 -0.29664695 0.11530496 0.087602064 0.21910699 0.15343349 -0.79433876 -0.16876696 -0.14460295 -0.6603795 0.68644464 -0.25953478 0.11265992 0.6121807 0.1869411 0.3432884 0.5893762 0.34764037 0.2472866 0.81918406 -0.23640724 -0.42864475 0.39014938 -0.692478 0.010117647 0.08137981 0.17670614 0.670359 0.4602368 1.0478675 -0.31300816 -0.011775625 -0.5069416 -0.1665337 -0.5549231 -0.045895234 0.0412756 0.45846838 0.7097409 -0.04509072 0.00532161 -0.55235404 -0.17377585 0.13889837 -0.6334853 0.81306404 -0.124092124 0.58541375 0.5157483 -0.032043558 0.08262512 -0.5726128 0.3571422 -0.123546645 -0.49552634 -0.38527474 -0.81909233 0.761449 0.0263015 0.043927997 -0.24703427 -0.6844789
364 0.51791954 0.7975692 0.19827181 0.085353054 -0.16759652 -0.14147948 0.3271982 0.2349402 -0.5973125 0.83424395 0.7484343 -0.335415 -0.2716231 0.20820864 0.14813069 0.6882529 0.03223019 0.05148837 -0.36343506 0.47532758 0.43005714 0.3880524 0.067516774 -0.8237154 -0.23640978 0.10325213 0.13793541 -0.17069277 -0.048459757 -0.112052634 -0.6172659 -0.14214516 -0.34430587 -0.3570244 -0.6122112 -0.059237994 -0.21271178 -0.42587936 -0.33326745 0.2753927 0.26256606 0.052867327 -0.39842725 -0.59981775 0.07022723 -0.1807156 0.2994079 -0.42136374 0.24985392 0.08996957 0.22264223 0.62141377 0.12885043 0.61257786 0.75063145 -0.06863514 0.58054215 0.7451839 -0.40285486 0.04325511 -0.81696945 -0.14823045 0.41144118 0.35836902 0.16836204 -0.5723917 -0.19177492 -0.1458115 -0.023267936 0.20448157 -0.19387063 0.82212675 -0.7782254 0.1052526 0.20010673 -0.57740957 0.02150448 -0.6867754 -0.30357277 0.2795848 -0.45148528 -0.13838236 0.40807036 0.7182703 0.236668 0.70917195 0.5408333 0.018034512 0.20820047 0.99660844 -0.41025853 -0.31282544 -0.65480477 0.0836356 -0.243391 0.18131135 0.092643015 -0.50075144 -0.16997683 0.39471954 -0.36595342 0.6209526 -0.30543706 0.24811107 0.21712908 0.07221716 -0.044789366 0.8271311 -0.3481363 -0.19620578 -0.05497751 -0.35643846 -0.1663031 0.18596473 -0.49391288 0.2428547 0.05558954 -0.18449654 -0.21807548 0.398207 -0.019946367 -0.10091766 0.13991095 0.038090307 0.16465475 -0.5262885 -0.29065356 -0.1048807
4306 0.10424445 -0.4617984 0.34969726 -0.1639972 0.044561855 -0.09415213 0.14691615 -0.67308414 -0.4706732 0.39575806 0.029027294 0.10134347 -0.19321278 -0.28847125 0.66188025 0.38237464 -0.0044208355 0.1745066 0.051661666 -0.0010811404 0.09181193 0.63019484 -0.4261858 -0.3646117 -0.47972083 -0.09226693 -0.83134836 -0.010251331 0.96474254 -0.7152721 0.5355003 0.43993977 -0.3714953 -0.44968447 0.1692171 0.30193302 -0.75402784 -0.41504812 -0.436303 0.327382 -0.11608675 1.0467305 -0.20346195 -0.3291266 0.5000829 0.002745144 -0.21647798 -0.78106725 -0.38797775 0.5012434 0.14431576 0.23265621 0.107715406 0.05122332 -0.04954826 0.10519372 0.2953873 0.38606405 -0.38855872 -0.38479263 -0.5890145 -0.21998002 -0.11144243 -0.23304261 0.78227186 0.014814641 0.5138144 -0.19112352 -0.5767261 -0.5493847 -0.30068162 -0.15512066 -0.39011252 -0.085436136 0.3710754 -0.36880094 0.4356762 0.00967211 0.45529684 0.048110347 -0.005277577 0.117827035 0.20528576 0.61995935 0.6014422 0.4349991 -0.64268446 -0.21375018 0.468543 0.09357556 -0.6531053 0.00062077714 0.22639972 0.035495814 0.72395283 0.3983457 -0.3264622 -0.29425433 -0.5816256 -0.17817093 -0.3025265 -0.6512369 0.8777993 -0.124629684 0.5551835 -0.40332356 -0.30481318 -0.8823101 0.1213205 0.18016146 0.6655854 0.2497941 0.5963663 0.4452863 0.63022614 0.2754435 -0.7003837 -0.22995338 0.23014839 -0.4098979 -0.090527505 -0.09640719 -0.5214229 0.16303216 -0.73310405 -0.3480178 -0.44940713 -0.43309993
588 0.20696802 -0.15385893 0.83073384 -0.04989091 0.30096912 -0.26685494 0.5760471 -0.09055412 -0.18686071 0.004137776 1.3199176 -0.56841934 -0.13447583 -0.07012565 0.21163297 0.39909998 -0.03815596 0.1361961 -0.057249535 0.028948227 0.23431651 0.8270679 -0.097079895 -0.334395 -0.3359609 0.12168853 0.09092063 0.45236394 -0.1293633 0.027365766 -0.87593514 0.01854759 -0.14527526 -0.15969056 0.13513476 0.5175191 0.12955002 -0.23115776 -0.10489593 -0.18710409 0.2933493 0.49522746 -0.4717266 -0.84444016 0.3519434 -0.081320524 -0.5817927 0.245963 0.014506568 0.2788951 0.5946262 -0.32914224 0.0037314575 -0.0924174 0.18898429 -0.568159 -0.23353966 0.5191674 -0.57796973 -0.19877589 -0.35992116 -0.12866002 0.42126355 -0.1076149 -0.18108147 -0.6267552 0.049813647 -0.21897852 -0.038833726 0.0948799 -0.7872391 -0.07852234 -0.39510038 -0.4079233 -0.29954723 -0.7937412 0.12671562 -0.7817911 -0.15021856 0.050830502 -0.038636725 -0.57182753 0.08332842 0.6615863 0.54245734 0.08991805 0.6712971 -0.45628425 0.7441363 0.4146837 -0.09378987 0.2588712 -0.36338428 0.32772574 -0.021537744 -0.41616607 -0.18241335 -0.5680085 0.4636642 0.1284358 -0.7796052 -0.724736 -0.21678357 -0.12059987 0.44585094 -0.7610312 -0.28840092 0.47456402 -0.21880138 -0.3505713 -0.4632787 0.12106224 -0.18355396 -0.48959136 -0.7956499 0.0025589606 -0.44932556 0.18222238 -0.35838702 0.114197806 -0.09821101 -0.32748824 0.008698253 -0.099062294 0.17005628 -0.2331217 0.038307663 0.3151835
58559 -0.33837837 -0.62220263 -0.07483459 0.41338125 0.885825 -0.088282175 0.4049771 -0.25822592 -0.6459521 -0.29521012 0.07840473 0.14481808 -0.5225844 -0.51935923 -0.3084391 0.5144941 0.100133 0.17215714 0.008327998 0.23354529 0.27722618 0.77905256 0.021408191 -1.0181804 -0.21838304 -0.6329962 -0.29066035 0.23835273 -0.24495186 0.47542262 0.063718334 -0.2108317 0.31382608 0.01856366 0.26517984 0.20761639 0.34556228 0.20838888 -0.009435744 -0.022570537 -0.67120004 0.8321391 0.42645517 0.39592183 -0.37069815 -0.5285801 -0.3703701 0.62948585 -0.3148799 -0.3201127 0.77116823 -0.091176964 -0.053974915 0.008991102 -0.46985406 -0.3014652 0.57662344 -0.49509048 0.085933104 0.33315775 -0.15418804 -0.20283553 -0.4056433 -0.08502604 -0.44182882 -0.717506 -0.1338515 0.2855257 -0.6467163 0.21170498 -0.44726288 -0.15213443 0.12875734 0.5577205 0.04669799 -0.5321781 -0.5735158 -0.1217545 -0.5073678 0.030366363 -0.86782247 -0.34146094 0.5588678 0.4592985 -0.0037194744 0.3880692 -0.043489672 -0.41678557 0.26657283 -0.49951804 -0.74333996 -0.1480263 0.8505968 -0.5986169 0.41708547 -0.30912107 -0.3039558 -0.019740215 -0.91027004 0.42621848 -0.38302946 0.15214132 0.25894684 -0.3933414 0.49823332 -0.5048985 0.2410129 0.020665556 0.75680417 -0.052613467 0.96779037 -0.42966646 0.1273306 0.67437965 -0.56038594 0.08999292 0.88825786 0.35824305 0.15579388 0.2910043 -0.05283387 -0.84923404 0.030373152 0.09811724 -0.6673071 -0.46642867 -0.118390605 0.034638446
1214 0.16049218 -0.14754617 -0.066751644 0.10848014 -0.07917578 -0.58856493 0.07166769 -0.6440191 -0.6905004 0.025524812 -0.15388185 0.38938183 -0.1790011 -0.43404785 0.30593958 0.8858403 -0.34233904 0.36610007 -0.5784663 -0.28752738 -0.072285846 0.67341125 -0.22736679 -0.6233659 -0.14633639 -0.64274544 0.010085685 0.1262579 -0.262301 -0.054395303 0.09509893 0.12903313 -0.20063017 0.4398318 -0.14987655 1.1501079 -0.2958938 -0.13651776 0.687636 0.6536633 0.5477947 0.77641153 -0.26939192 -0.24004771 0.7433886 -0.25799233 -0.8525217 0.5510368 -0.23561636 0.27860674 0.43158683 0.28278753 0.4834749 0.06397352 0.4975 0.09701129 1.2263211 -0.14835046 -0.048831794 0.029753702 -0.9234052 0.59983265 0.5298414 0.42132095 0.054325335 0.83516246 -0.08970026 0.2196326 0.35828462 -0.37255326 -0.21339986 -0.5698719 -0.009800603 -0.67907256 0.028478373 0.11437602 -0.21852471 0.37461874 -0.19046113 -0.21482581 -0.2745958 -0.10682606 0.26445666 0.67707825 -0.0995179 0.014922908 0.32942295 -0.5055837 0.12199498 0.34852147 0.34480134 0.34882957 0.810235 0.047515742 0.69810975 -0.89392877 -0.47049138 0.04680348 0.1202458 -0.7952312 -0.1399514 0.4053956 -0.33827147 0.17207605 0.20391285 0.51226264 -0.60311943 0.27843854 0.47575372 -0.42392755 -0.026395248 -0.20211059 -0.11276904 -0.15048179 -0.35858086 -0.3701731 0.12626027 0.16638677 0.15122975 -0.29981363 -0.38678104 -0.24605331 0.026283894 0.47889084 1.2659706 -0.116759576 -0.014437157 0.1551583
1197 -0.25518256 -0.166313 0.20055474 -0.31308374 0.13258058 -0.5032156 0.53613776 0.37145916 -0.03513385 0.06813371 0.4063853 -0.25840658 -0.27036452 -0.36589327 0.1547564 0.5652977 -0.44626683 -0.19709902 -0.14126568 -0.3212485 -0.3322635 -0.47022462 0.33350372 -0.4061174 -0.4320378 -0.38151133 0.15515047 0.45713934 0.29245073 0.5215075 -0.14202149 -0.2554784 -1.0046502 0.286747 -0.09380936 0.5812476 0.028953526 -0.26959473 0.083198376 0.11959219 0.5529861 0.08807283 -0.46504864 -0.6260503 0.5525659 0.17489941 0.32744804 -0.124634095 -0.24125572 0.1433335 -0.0049989573 0.40653282 0.0027685487 0.095566645 -0.6520499 -0.24073476 0.8063486 1.0271839 -0.2610957 -0.4786709 -0.92887086 -0.0353819 0.18307337 0.13050705 1.3169744 -0.41065007 0.054411735 -0.5545622 -0.116417125 -0.2097227 -0.22868702 -0.026619792 -0.4665615 -1.3116071 -0.12262274 -0.75663686 0.12867114 0.5135257 -0.4442507 0.35181653 -0.38058767 0.30428723 0.0481932 0.5978859 -0.0646968 0.32413223 0.41679904 -0.10577357 -0.45042256 0.44261187 0.6102218 -0.78820246 0.42602012 0.597366 0.3910581 -0.68315905 -0.038566146 -0.30234426 0.3697709 -0.39156994 -0.48025018 0.5319628 -0.45647603 -0.45845422 0.4375765 -0.20135932 -0.5334022 0.42716017 0.4108557 -0.29859555 0.5436852 0.2322094 0.26374164 0.22558655 0.53454536 -0.3481228 0.2366946 -0.09019014 0.8370028 0.074177325 -0.24074534 -0.4530595 -0.3878355 -0.018052028 0.5670303 0.16343182 -0.35449094 0.33311376
1193 -0.48817638 -0.8809623 -0.3548211 -0.7943184 0.50994235 -0.3184763 0.28155503 0.08273541 -0.37287757 -0.15673004 0.22422123 -0.36098304 -0.640368 -0.28126192 0.53527707 0.21119595 -0.057167415 0.83437765 0.013543235 -0.15710646 0.41104022 0.15456209 -0.3840411 -0.23310179 0.2249034 0.5732645 -0.08312968 0.015829178 0.1422609 -0.06370231 -0.27502814 0.107849695 -0.8312674 -0.18137471 -0.7426982 0.725986 0.4652424 -0.20742682 0.9391022 -0.4323577 0.7874427 0.3113361 0.030289596 -0.13003214 0.21174178 0.10414479 -0.34427804 -0.0583453 -0.073640674 0.5013282 0.86313766 1.0133473 0.1670142 0.23682098 -0.012270238 -0.12722166 0.31441122 0.2399572 0.17246598 0.49850142 -0.94665605 0.3963845 0.44755712 0.3299276 0.5311017 0.017313909 0.254669 -0.19063674 0.4846151 0.08149098 -0.8390647 -0.7229461 -0.6937405 -0.7933165 0.26179966 -0.16642454 0.06354199 -0.03103418 -0.5486811 0.34353074 -0.100759886 -0.36461535 0.26035252 -0.17001395 0.19021519 0.37031525 0.31548634 -0.49811158 -0.7164229 0.51871145 0.15669054 -0.10537455 0.612521 -0.30968058 0.693727 0.5479187 0.17404394 0.013215372 -0.24827327 -0.42418012 -0.25515375 0.12625872 -0.37074658 -0.5526 -0.5365231 -0.39378825 -0.0016843312 0.43099615 -0.19532233 -0.42796856 -0.53723747 -0.29394114 -0.9137625 -0.004546849 -0.49316013 -0.4233367 -0.38124257 -0.41814134 0.69614196 0.35696894 -0.2133553 0.020959236 -0.45009962 -0.03368736 0.4475555 0.043381676 0.38745525 0.081781074
79132 0.69859934 -0.7976945 0.16862024 0.56581724 0.77817565 0.52924925 0.13376042 -0.6151791 -0.1460875 0.19669314 -0.3200458 0.432552 -0.9158024 -0.4841147 -0.33914936 0.35898513 -0.17436545 -0.8702447 -0.3611685 0.58185595 -0.002708415 0.3871578 -0.28891462 -0.9532132 0.2762441 -0.2389008 -0.2188396 0.20983303 -0.74645686 0.456306 -0.043481078 0.054662447 -0.33575818 0.41080815 -0.2460404 -0.024721382 0.09067213 -0.2590527 0.10042763 0.1078725 -0.4451289 0.37890556 -0.6013211 0.26932046 0.7396075 -0.61224484 -0.7252807 0.61858475 -0.06768679 0.3179557 0.7682042 0.055739574 -0.41626355 0.040019654 -0.23635067 0.24272059 0.41418225 -0.31513748 0.32798895 0.19872567 -0.10472359 0.15200461 -0.18296385 -0.7376061 0.4984467 -0.05949205 -0.32080358 0.85879564 -1.0628458 -0.18952551 0.13783386 -0.6835279 -0.79919237 -0.12582733 -0.2232629 -0.14079961 -1.0191089 -0.6850574 -0.12677376 0.59541416 0.17195567 0.03879227 -0.1948052 0.38395002 0.091168575 0.9351509 0.5629783 -0.9150905 -0.24244827 0.05789978 -0.16106305 -0.7426637 0.3693608 -0.81021273 -0.33170918 0.007081819 0.31761536 -0.41755146 0.18859735 -0.014995818 0.12540369 -0.029053565 0.19729482 -0.012605622 0.39572737 -0.2667257 -0.51478356 0.036391404 0.45136407 -0.56376594 0.15091695 -0.23802543 0.22336757 0.17218074 0.38235253 -0.019938024 0.47372326 0.6899122 -0.20337558 -0.6790735 0.20520695 -0.7809279 0.76469 0.57944906 -0.91436374 0.16093108 0.3767623 0.03207706
1221 -0.2320307 -0.9832581 -0.06019622 0.2044846 -0.13399242 -0.50777286 0.37683943 -0.46462905 -0.16276017 0.37635058 -0.17373449 0.32404187 -0.6716804 -0.42032543 0.6710423 0.94460195 0.32973593 0.7385316 -0.17348747 0.30001044 -0.40128618 0.6214042 -0.27551106 -1.0104867 0.09518139 0.2857664 -1.0035242 0.6426652 -0.020929476 -0.5437813 -0.1713789 -0.29560816 -0.118096165 -0.5682309 -0.03561006 0.29888088 0.138181 0.2649597 0.7207264 -0.1184888 0.20288838 0.18132089 -0.19175845 -0.08884692 0.41684645 -0.39515913 -0.21035182 -0.30757675 0.2146039 -0.87169355 0.52440333 0.7882446 -0.4137711 0.317719 0.3303009 0.08112092 0.9685178 0.24498774 -0.93971664 -0.078077786 -0.7654437 -0.5038855 0.5894052 0.21025273 0.39106742 0.40435213 0.55104536 0.81920505 0.9501305 -0.062538624 -0.3550087 -0.7837068 -0.4450851 -0.8592793 -0.26964903 0.34929255 -0.6493506 0.291396 -0.20742619 0.09504824 0.0015017897 0.20496725 -0.036085505 0.1859219 -0.24153957 0.5083715 -0.15289938 -0.44148785 -0.12179853 0.8569595 -0.040960357 -0.43140024 0.3986473 0.11630863 0.6228375 -0.05138068 0.3409685 0.2677237 -0.1665436 0.01466412 -0.12381097 0.1493332 -0.6268115 0.16069873 0.03819784 -0.06171374 0.039414573 -0.30221087 -0.028742252 -0.14836363 0.1032276 -0.24308285 0.30462265 -0.26888615 -0.695546 -0.5506671 -0.07639468 -0.7056009 0.17165373 0.41831192 0.41091195 0.051030368 0.1700222 0.42668077 0.46918353 0.354138 -0.53008366 0.020428075
1089 -0.15228133 -0.36953145 -0.2643647 -0.034069743 -0.09728631 -0.35195273 -0.016305707 -0.13149285 0.083083406 0.7938571 0.4110825 -1.2728115 -0.38243082 -0.4335745 0.34448117 0.69273025 -0.36559764 0.36874813 -0.35027602 -0.43749756 0.35508278 0.118832506 0.30243886 0.027989073 0.48092535 -0.15359122 0.045852765 0.15082489 0.27537277 -0.26911485 -0.44906643 0.5850122 -0.45666724 0.6301537 -0.16649772 0.94291985 0.7610468 -0.35530373 0.62660277 -0.1826786 -0.15464191 0.5705614 -0.42817855 -0.09344241 -0.16899973 0.15156761 -0.2445454 0.12922782 0.03559935 0.030495701 0.1233641 0.3832337 0.3899177 -0.31304395 -0.050741427 -0.951004 0.1416633 0.5026026 0.35861227 0.5452956 -1.0558047 -0.12107546 -0.08963193 1.0557088 -0.18071721 -0.1054597 0.12704298 -0.25803134 0.40662816 -0.10513169 0.052942246 0.0343325 -0.7636519 -0.75992036 0.33167002 -0.3388816 -0.35299134 -0.23537949 -0.33071747 0.059508048 0.13586642 0.2101481 0.14381552 0.53345656 -0.106478654 0.997785 0.63235146 -0.2651822 -0.15671943 0.32546428 -0.0679038 -0.5280107 0.2417768 -0.22444713 0.23336542 -0.09963343 0.15681931 -0.32127932 -0.90479416 -0.38244736 0.5894502 0.11648529 0.16146712 -0.12347961 0.33557567 0.24839516 -0.10019396 0.8121656 0.0026647928 -0.15154302 -0.2386425 -0.82279116 0.18196756 -0.21037388 -0.8346961 -0.2860342 0.24085452 0.021827957 -0.4491165 0.15804462 -0.60107636 -0.43309337 0.64804524 0.7797873 0.0030217192 0.20617089 -0.34093562 -0.12156591
7361 -0.7597542 -0.2403799 -0.05294842 -0.58673155 -0.053459916 -0.098649755 0.21504258 -0.176312 -0.21991634 0.10471357 -0.07678648 0.086878784 -0.7113971 -0.24058029 -0.12247713 0.69807786 -0.7810121 0.48180917 -0.42320094 1.1904418 0.714008 0.1896518 -0.8960093 -0.4964302 -0.45929006 0.113450855 0.27483463 0.26344332 0.4965159 -0.80814826 0.18685612 -0.4269822 0.40846634 0.29416373 0.11304155 -0.062287197 -0.094233274 -0.85536504 -0.31709436 -0.2505545 -0.7317291 -0.03996131 0.37918186 -0.56977254 0.7481596 -0.56397724 -0.12535854 0.023251047 -0.05121468 0.606816 0.070796765 0.3239601 0.23159744 -0.8633315 -0.43352896 0.6061083 0.6579097 -1.0217462 0.043698076 0.5004221 -0.594367 -0.61859965 -0.27470246 0.11553253 -0.23294923 0.40830547 0.5839377 0.18029076 -0.34049597 0.09314586 0.2838642 0.085121185 -1.010609 0.7926375 0.22286437 -0.49604777 -0.07632851 -0.6196635 -0.34631428 0.09954854 -0.13917206 -0.48097703 0.80402666 0.6307106 0.42764476 0.43072978 -0.5289395 0.18891445 0.5604269 0.539086 0.15058124 -0.08230523 0.6488399 -0.22781073 -0.16820168 -0.08335877 0.34932366 -0.51887256 -0.25639498 -0.4071796 -0.31700796 0.005219182 0.17650259 -0.12933125 -0.045906764 -0.056877136 -0.72196096 0.15374917 -0.15494022 -0.3608369 0.757354 -0.3055502 0.30946776 0.8719966 -0.07999419 -0.9648336 0.5339343 -0.25914165 -0.3331787 -0.10537827 -0.1922181 -0.060600646 0.21183269 -0.17509724 -0.17246638 -0.087530926 0.26860562 0.2702838
1291 0.26127064 0.04839617 0.029236948 0.13805845 0.44702885 0.33819103 0.018320559 0.32970232 -0.21099097 0.46116513 -0.02706847 0.12350379 0.32020625 -0.45636305 0.0065925242 0.36978042 0.048965964 0.23691542 -0.62341523 -0.25352317 -0.06077138 1.0558065 0.9129129 -0.7890805 0.06987028 -0.40810135 -0.46056443 0.29780096 0.3799143 0.22867212 0.33126244 0.012937718 -0.3436771 -0.26279154 -0.681145 0.8034268 0.30404094 -0.23254511 -0.34966877 0.4846517 -0.416808 0.37990993 0.096929535 -0.7854728 1.0028666 0.29396138 -0.26305896 -0.12465239 -0.19297926 -0.22579542 0.6802995 0.18437801 -0.622825 -0.114215076 -0.26441243 0.5028747 0.80919033 0.7689308 0.17610027 -0.23584601 -0.83057564 -0.009968774 0.21257769 0.5840255 0.2953415 0.51731896 -0.3145517 -0.26915947 0.4352527 -0.23569702 0.27571267 -0.33553597 0.09485443 -0.22912642 0.47257134 -0.47625345 0.1005706 0.46053755 -0.21132636 0.5272386 -0.45659235 -0.30653244 0.6029665 0.38207662 -0.01678258 0.14138621 0.029413039 -0.25611344 0.5626758 0.2489441 -0.23505764 -0.4326048 -0.013320921 -0.13221717 0.45484012 0.3634659 0.24417819 -0.17926127 0.36468494 0.300428 0.2649198 -0.18854983 -0.8425304 0.30877966 0.19366935 -0.21515393 -0.5951711 0.59567106 0.11220156 0.12970363 -0.92841804 0.28438497 0.28587607 0.16129422 -0.37459373 -0.67848766 -0.12821664 0.23653825 0.55046016 0.2908183 -0.702268 -0.40093726 -0.13347897 0.60902816 0.21086311 0.20438412 -0.13128671 0.6644007
2329 0.05600399 -0.5915935 -0.2416905 0.3908249 -0.31390616 -0.69275814 -0.048993897 -0.17718506 0.0037490074 -0.44555503 0.36477107 -0.92823505 -0.27611697 -0.13842955 0.7093765 0.39840052 0.22665286 0.18465516 0.59525454 0.0108149145 0.6126465 0.9114715 -0.36669075 -0.39249036 -0.14477235 0.6033986 -0.18170027 0.78122383 0.50728273 -0.32000047 0.06841136 -0.62084895 -0.5414295 0.093105696 -0.14778139 -0.36942676 0.6237023 -0.3753191 0.7324459 -0.20771113 0.07279044 0.023842946 -0.019958775 -0.8245269 0.6680983 -0.6230501 -0.77488256 -0.22293527 0.25576875 -0.47102335 0.62912536 -0.14102858 -0.121845394 0.63573194 -0.36797738 0.97962767 0.4338715 -0.19605835 0.31875205 0.13388371 0.080574855 0.4744081 0.103130154 -0.1401079 0.15415744 -0.14153503 -0.22598298 0.43492115 0.658418 -0.09205802 0.00069243286 0.5505119 -0.13305847 -0.10124982 0.7313072 -0.11416723 0.08421973 0.32616824 -0.1667288 -0.33177352 -0.8102183 -0.28964642 0.03779882 0.33273682 0.46255133 0.62223697 0.09326375 -0.23436071 -0.6918772 -0.30255744 -0.6266581 -0.6572503 0.14871423 -0.2075912 0.76489425 0.2342066 0.22089066 0.034451406 -0.2682438 -0.2913564 -0.14558752 0.19700296 0.49575487 0.24610323 0.53603226 -0.35465497 0.12554814 0.59994596 -0.007967891 0.26834804 0.101572484 0.46136424 0.1009712 0.48889548 -0.4790731 -0.089211136 0.38600478 0.45650062 0.41716212 -0.39204732 -0.70752424 0.2675873 -0.2577643 0.5006422 -0.10232769 0.6781264 -0.63059545 -0.13237216
1704 -0.027397411 -0.6884142 0.37598333 0.4578951 0.5727766 0.12086742 -0.25972432 -0.34335887 -0.28717482 0.33693108 -0.39381012 -0.5910041 0.85372037 0.50548744 0.219861 -0.11614803 0.39012223 -0.15465471 -0.28973225 -0.031494685 0.74175894 0.62030536 0.21932322 -0.6605119 -0.22533077 0.052585464 -0.31454828 0.4299048 0.32011494 -0.8276148 -0.33440676 0.2706772 -0.8101574 -0.065278426 0.3474619 0.49693152 -0.20552878 -0.23776427 -0.41021618 0.078801356 0.19147994 -0.3514605 0.15510169 -0.71861345 0.5278252 0.65623707 -0.3537299 0.70359623 -0.5995677 -0.36411712 0.6485044 0.8867852 -0.76637214 0.1542949 -0.2089365 -0.2963586 0.22538431 0.43406963 -0.11480831 -0.11760976 -0.84224474 0.0110067995 0.0229061 0.53915423 -0.15026014 -0.087798014 0.008010829 0.14781967 -0.0028615948 0.059763994 0.2767846 -0.16633038 -0.6482291 0.05922393 0.3247272 -0.14533286 -0.46608326 0.069147624 0.70994735 -0.33986714 -0.67175686 0.13035747 0.39987218 0.47044188 0.059300266 0.31094506 0.26711425 0.39013606 -0.13661668 -0.30466428 -0.22183776 0.07048376 0.41385472 -0.38102153 0.98982364 0.79480386 0.7347265 -0.5694881 -0.1066808 -0.4468533 -0.7783503 0.27062994 -0.19947171 -0.4689764 0.13050202 -0.27976197 0.14787947 0.15954655 0.07249145 -0.3298156 0.6049618 0.115829 0.21786663 0.18634489 -0.565068 -0.35264888 -0.009493226 0.2973629 0.28568196 -0.26813304 -0.42137975 -0.3610138 0.50482446 0.26607397 0.7885091 0.63656694 -0.92071164 -0.090417095
1213 -0.2096185 -0.7152117 -0.0453686 -0.050357755 -0.2578236 -0.22981757 0.5606354 0.6350337 -0.10670011 0.1075956 -0.008796079 0.14039868 -0.12703784 -0.81040037 0.57334906 1.1542743 0.28848714 -0.15304345 -0.42082715 -0.24120769 0.31546667 0.47445977 -0.22602753 -0.07991833 0.89916664 0.45647386 -0.51712817 0.35107917 0.4248062 -0.3078368 -0.40627158 0.01906878 -0.52246904 -0.13359739 0.13772865 0.096579336 0.3394503 -0.15138058 0.5207206 -0.2640192 0.13958418 0.5748704 -0.4483564 -0.097659186 0.27777582 0.1119514 -0.6208808 -0.11141882 0.121812314 -0.5664741 0.14228798 0.5010189 -0.66367024 0.22898056 0.12621109 -0.22410014 0.7245075 0.28441644 -0.393182 0.1372265 -1.104938 -0.594325 0.46323878 -0.03828164 0.23020388 -0.060808007 0.11874195 -0.45592257 0.43111634 0.25214404 -0.49426708 -0.59879714 -0.5522686 -0.89414984 -0.183832 0.13800132 0.13414802 0.38221663 0.7546386 0.284667 -0.2564415 0.28970265 0.27333397 0.090170935 -0.1813726 0.9543229 0.24831809 -1.136601 0.19569366 0.35043484 0.81357235 -0.18379328 0.76359683 -0.19967231 0.21167202 -0.006758342 -0.16309483 0.16138548 -0.7324249 -0.49968445 -0.10440947 0.23676448 -0.6449514 -0.3961261 0.4496095 -0.07238404 -0.37302947 0.5391188 0.2690082 -0.25376415 0.06300028 0.0806873 -0.10686398 -0.07788005 -0.53183764 -1.0523736 -0.2269396 0.17430279 0.2520168 0.03221802 0.20546122 -0.71128255 0.11160366 0.48483163 0.37008813 0.11100587 0.3385452 0.15333492
590 0.4537802 -0.56092185 0.64806443 0.18587257 0.3821429 -0.28426227 0.10533058 -0.2554439 -0.36601412 0.43344042 0.48951307 -0.069504045 0.063113645 -0.9534021 0.59281385 0.96311384 0.18069299 0.3472025 0.03394455 -0.26683435 0.08917597 0.25348538 0.103482366 -0.68149894 -0.1964762 -0.12218373 0.4373298 0.07973437 -0.3777061 -0.46519908 -0.78562516 -0.14485727 0.025771456 0.362413 -0.06489555 0.6865962 -0.19165812 0.13306029 0.29499093 -0.007900969 -0.33084518 -0.40882367 -0.37453407 -0.8558792 0.8028474 -0.10380232 -0.8059065 -0.31188014 -0.15125293 0.42996323 -0.27099028 0.40854773 0.30671307 0.07730123 0.47445223 0.1946737 0.59419936 0.26466838 -0.649875 -0.43630797 -0.28414604 0.3585966 0.16018113 -0.22313166 0.32722533 -0.51277393 0.12574248 -0.468815 -0.64162385 0.23459524 -0.7379158 0.52606374 -0.7678541 -0.587954 -0.008485895 -0.34363872 -0.43846396 -0.27609542 -0.39848372 0.06219171 -0.7422497 -0.17191705 0.25635922 0.7114832 0.30305734 0.20999244 0.6684204 -0.39670384 0.17184073 0.44517258 -0.2179809 -0.05787323 0.04385084 0.41720477 0.07243347 0.49625957 -0.22160237 -0.49421296 -0.106782496 0.3975825 -0.04867537 -0.36404985 -0.3413612 0.14573625 0.49948883 -0.32494235 -0.044792134 0.19998446 0.18726104 -0.4893323 0.010453776 -0.9636116 0.1581555 -0.34316495 -0.21313727 0.52854055 -0.4510062 0.26940706 -0.19031522 0.094508864 0.03456814 -0.04006801 0.17513794 0.028596401 0.55653656 -0.3868638 -0.6166346 0.55267316
1136 -0.65311813 -0.71850866 0.4670704 -0.12907943 0.4756637 0.26500788 0.14404751 0.47266507 0.108725585 0.54874194 0.35667512 -0.1692778 -0.59134626 -0.023490794 0.4363571 0.07671638 0.21257196 0.45476943 0.0003461686 0.0051815836 0.73976344 0.29706642 -0.3744352 -0.3418483 0.11529707 -0.08691983 -0.4521849 0.22104797 0.17656177 0.14287712 -0.49160787 0.8255581 -0.49836907 0.073488645 0.24247585 1.0829486 -0.13012585 -0.34995174 0.63366216 0.10311591 0.44165975 0.09465953 -0.42308944 -0.22865404 0.2625544 -0.07478986 -0.73835194 -0.10645743 0.09473283 0.3184457 -0.012865176 0.5183897 0.07440813 -0.023902325 -0.3750708 -0.63333756 0.53285366 0.4369176 0.40412524 0.59141386 -0.56694216 0.2170353 0.9347237 0.098526105 0.43334985 -0.20829158 -0.015659785 0.20417804 0.6208184 0.20843868 0.16022311 0.35091338 -0.07546006 -1.1594317 -0.01111282 -1.1431055 -0.39901227 0.48155624 -0.40456825 -0.2143783 -0.65615803 1.1309763 -0.1924504 1.0223279 0.7307077 0.27736253 0.4958158 -0.4382399 -0.36261776 0.21731374 0.721857 -0.10058815 0.110705025 0.24796598 -0.15726815 -0.16995937 -0.43362653 -0.79680455 0.015131431 -0.45320484 -0.4087097 -0.7272364 0.15275165 -0.29160178 0.6565997 0.12291642 0.061217986 0.112946115 0.749372 0.046146665 -0.062190797 -0.2486046 0.22717479 0.5486644 0.057434384 -0.07680724 0.5299336 0.2282647 0.86899596 0.1112407 -0.10673538 -0.091696225 -0.33557826 -0.13659975 -0.013462574 0.120288976 -0.80491847 -0.009692622
1036 -0.21689066 -0.48520455 0.065868855 0.21399704 0.35146248 0.0629111 -0.3081597 -0.03524775 0.12034883 0.29167438 -0.06909435 0.13100587 -0.502412 -1.1046541 0.09749212 0.40966406 0.30742085 0.028884675 -0.10014092 -0.5080186 -0.19662942 0.28290576 -0.5682824 -0.26602617 -0.45858565 0.1533101 0.10094321 1.112281 -0.2306507 0.043740675 -0.30178872 -0.31209362 -0.72682315 0.4158608 0.0061268755 0.69303435 0.28934285 -0.23749577 0.07755621 -0.28455946 -0.25323582 0.21045882 -0.2274299 -0.092583574 0.069644324 0.1580001 -0.38313633 -0.42660093 -0.019525647 -0.29873645 -0.024389206 0.2779364 0.6193732 0.27396217 0.50253457 -0.26255196 0.6603027 0.36627284 -0.3252429 0.5632712 -0.35760728 -0.052154902 0.3221519 0.62074596 0.10216704 -0.6980491 -0.40569654 -0.027946534 0.3761408 -0.28403255 -0.26178023 0.3020362 -0.47274068 -0.556254 -0.34432065 -0.72943646 0.07996687 -0.119732946 -0.75486773 0.8133448 0.36815983 -0.09706465 0.22421204 0.5645092 0.48681843 0.043044604 0.54378015 -0.31657383 -0.44252473 0.56240183 0.34001458 -0.21249081 0.5228772 0.0949487 0.8526666 -0.5064766 0.6858652 -0.5218109 -0.16402693 -0.09815367 0.019345481 -0.033699956 0.4280521 -0.446698 0.2554318 -0.5253795 -0.4216376 1.4203845 0.54322827 -0.35562605 -0.2127693 -0.12375689 0.44809604 0.42692047 -1.1078502 0.06909009 -0.24900752 0.32525757 -0.35360414 -0.40749016 0.00939406 -1.0061516 0.32364577 -0.07858852 0.021845134 0.27171937 -0.19278823 -0.02069925
1265 -0.19886191 -0.34546578 0.045258135 0.9469501 0.3997191 -0.095496684 -0.4851901 -0.4355332 0.12707569 0.183196 0.5192749 -0.42914507 0.09541041 -0.45439288 1.2458193 0.3831409 -0.844142 -0.49560937 -0.54299086 -0.048301965 0.5968642 0.7633463 0.2827754 -0.54853326 0.38382447 -0.18837948 -0.6354245 0.325838 0.18941677 0.23556882 -0.58285564 -0.24494666 -0.421594 -0.56242865 -0.5233946 0.24872302 -0.1958856 -0.18196332 0.73798376 -0.03611874 -0.4564062 0.17947437 -0.23801976 -0.34670052 0.9417236 -0.47163782 -0.12702467 -0.2499356 -0.46815443 -0.4429571 0.36462247 0.54228 -0.20561005 -0.15680796 0.34185916 -0.3207581 0.21384056 0.34173748 -0.30352542 -0.1307305 -0.48423806 -0.33558726 0.52406013 0.12980969 -0.7125218 -0.06327974 0.22162612 0.34593374 -0.17479548 -0.054383233 0.042077813 -0.46790895 0.25215396 -0.43843958 0.3722435 -0.518888 0.15010813 0.119099975 0.14910638 0.6967241 0.09077568 0.68682253 0.2665696 0.5162128 -0.09426827 -0.27401537 0.7320728 -0.21279575 -0.1863393 0.2199055 -0.91617924 -0.422711 0.31600145 0.15563537 0.6073674 0.2950317 -0.05004231 0.8893773 -0.21140207 -0.2096393 -0.49526328 0.20865811 -0.22967355 0.22943683 0.3461218 0.13207667 -0.40991127 0.44314307 0.18529312 0.023669029 -0.06996539 0.07350305 -0.22462317 -0.2503869 -0.867013 -0.018746084 0.1898823 -0.3490427 0.31555986 -0.28531173 -0.5936735 -0.54641896 -0.45257244 0.5513262 -0.22774114 -0.047915354 -0.16168927 0.46797708
4973 0.31207865 -0.9127043 -0.060149677 0.94604105 0.41630194 -0.8857497 0.26658663 0.0418529 -0.39628568 -0.6431666 0.3066216 -0.25113243 0.041658606 0.034302287 0.59391993 0.26112196 -0.035082486 0.1556704 0.042118188 1.0857406 0.50492 -0.049638905 -0.6611658 0.26094154 0.0024861554 -0.38649252 -0.671966 0.37268484 0.5563847 0.01830105 0.121767975 0.8809258 -0.31494135 -0.42440113 -0.46466595 0.77034533 -0.5780044 -0.4977998 -0.3750147 0.12889661 -0.16681813 0.7079177 0.39967516 -0.4551202 -0.016497396 -0.39102206 0.6779338 -0.6955499 -0.09249116 -0.00097085163 0.3887047 -0.5765226 0.5391487 0.185936 -0.5122577 -0.46886185 -0.059375368 -0.15996315 0.50874215 0.42026016 -0.3127285 -0.68911284 -0.29263544 -0.1342931 0.73367727 0.9545731 0.13821618 0.43079597 -0.0028127697 -0.13161878 -0.18376257 0.45083353 -0.7199286 -0.33573446 0.4246862 -0.45693237 -0.047949392 -0.13865013 0.38032028 -0.115340695 0.14308618 -0.44679388 0.07856108 0.7628305 0.67880285 0.7337246 0.068060346 -0.4671613 0.706429 0.042463996 0.092129 -0.7424145 0.37575892 -0.33592117 -0.043337263 0.22788987 0.0669034 -0.40245792 -0.18627799 0.15220143 -0.9270676 0.42932978 -0.55151904 0.11375249 0.17553778 0.14464279 -0.4759952 -0.28408605 -0.008094042 0.2792908 0.8919955 -0.8545574 0.41321167 0.262552 -0.55841196 0.2986588 0.20724894 -0.017271126 -0.30697367 0.6291784 -0.12157366 -0.22802281 -0.3474736 0.401872 -0.17441835 0.7379406 -0.558964 0.5529099
6377 -0.45536134 -0.24737145 0.65666574 0.4706083 0.19991565 0.25533897 0.53718907 0.12833177 0.044222374 0.00963521 -0.3341225 -0.016348561 -0.67959607 -0.013216267 0.2803525 0.07744368 0.02461253 -0.34337005 -0.4083201 0.30363563 0.18309331 0.9204137 -0.5543177 -0.3337479 -0.37447956 -0.2589676 -0.36326054 0.19610626 -0.0702251 -1.2304476 0.005261226 0.30789703 -0.12284293 -0.26051793 -0.0125024365 -0.2714115 -0.48045355 -0.82531524 0.16919851 0.4321979 -0.37837115 0.5042406 0.28546497 0.20346583 0.22971524 0.31721604 -0.0796898 0.79958683 -0.37439147 -0.16774788 0.8673394 0.6783541 0.5874238 0.08841374 -0.76861227 -0.17541595 0.22886373 -0.24092351 -0.33214656 -0.06578736 -0.6397054 -0.15919963 0.4508776 0.925752 0.66862524 0.32718065 0.14581646 0.33976 -0.18502557 -0.62421894 -0.8407321 -0.4290559 -0.16359533 0.18585224 0.5584615 -0.35876086 0.07836972 -0.35068452 -0.35776636 1.0177636 -0.45708153 -0.29580858 0.2260327 0.12464237 0.25495535 -0.12026881 -0.28928864 0.24791135 0.7676277 -0.66706264 -0.27536178 -0.62668425 -0.4836508 0.19713397 -0.5074734 0.33943093 -0.052321315 -0.4389334 -0.581491 -0.30321547 -0.5934667 0.35929298 -0.025678687 0.6376286 -0.45957887 -0.67951095 0.12180038 0.622006 -0.31661487 -0.44066426 -0.00029449802 -0.30352676 0.15977392 1.1900008 0.067148246 -0.32347476 0.9021833 -0.1275438 0.22869022 0.2607365 -0.46557096 -0.7965571 -0.56990904 -0.10654182 -0.7537358 0.40966073 0.20419367 -0.0413058
1240 -0.50780696 -0.03976871 -0.09077616 0.36693627 0.11129712 -0.23830529 5.3030453e-05 -0.5381316 -0.17045608 -0.2648916 0.18783587 0.013188476 0.026607076 -0.7088998 0.27904612 0.93446374 -0.4755568 -0.44286543 -0.72272956 0.24162322 0.14395225 0.545915 0.30299538 -0.5953949 -0.59330624 0.42138907 -0.68404627 0.08736347 -0.074568175 -0.24544032 -0.10029927 0.42723554 -0.36830303 0.4311258 -0.11801604 0.74598587 0.13790545 -0.42849132 -0.013790743 -0.36118248 0.82760876 0.15781564 0.028601525 -0.44488692 1.0558372 -0.4960569 -1.0306647 -0.18595996 -0.87448335 -0.4152481 0.40009382 0.17407283 -0.12960415 0.30109856 0.37111804 -0.21523319 0.5282796 0.4854171 0.048766594 -0.0346469 -0.9025268 0.04554367 0.5642254 0.55627084 -0.22961631 0.024152888 0.4805312 0.20424302 -0.16180168 0.2567513 -0.068027265 -0.37558168 0.17680754 -0.17581448 -0.08416006 -0.5262162 -0.43659264 0.36617637 0.3537346 1.0704415 -0.21337846 0.33570254 0.24567969 -0.0074990215 0.2657714 0.22425874 -0.17312993 -0.12435592 -0.79891217 0.41072387 -0.23308009 0.18922384 0.38954833 0.06474776 0.35539034 0.2566202 -0.32125342 0.0058867293 -0.2263376 0.2359319 0.4086693 0.30933458 -0.6777482 0.25988325 0.5890278 -0.015049399 -0.37558064 0.22572584 0.42660743 0.18928327 -0.31606054 -0.08426212 0.2946729 -0.2872089 -0.7930297 -0.7562422 -0.3204526 0.008956049 0.6203117 0.2834426 -0.72134966 -0.39949855 -0.029539399 0.12969263 0.24226199 0.09133866 -0.5567929 -0.07655016
293 -0.08183155 0.18968326 0.16219279 0.22607897 -0.28773963 0.19570483 0.083326794 0.102566734 -0.3795737 0.24603596 0.53416914 -0.70302343 -0.07434021 -0.22472042 0.7205523 1.0566357 -0.41436797 -0.034459256 -0.1310687 0.16826232 0.82033306 -0.03804035 -0.2295166 -0.6652664 -0.29243666 0.08448577 -0.45258507 -0.4454974 0.01262618 -0.79593754 -0.11455999 -0.18335797 -0.38972804 -0.15639876 -0.23971154 0.94727796 0.5691888 -0.07018136 0.11232799 -0.19509615 -0.46565384 0.53718007 -0.45119742 -0.61354417 0.23637617 -0.36999878 0.59204227 -0.2977978 0.5767568 -0.36432612 -0.09482762 0.5135483 -0.17663555 0.0655079 0.24077941 -0.36934534 0.41795486 -0.30622455 -0.61952436 0.05449936 -0.4475831 -0.1356743 0.5054956 0.5076317 0.010872067 -0.07292226 0.10964657 -0.7600224 0.41781756 -0.3574946 0.37303004 0.522802 -0.7810864 -0.34066528 0.073903516 -0.59220153 -0.62312055 0.3697685 -0.39002907 -0.6346808 -0.07369631 -0.29669744 0.14039044 0.18421778 0.23807386 -0.37332353 0.4635728 -0.26065108 0.33606052 -0.08184169 0.20700139 0.6247699 -0.5900606 0.30161598 0.39283466 0.59569955 0.14796445 -0.51137424 -0.6415115 0.42103827 0.05609724 0.042629376 -0.5350113 -0.41393903 -0.051761627 -0.20800568 -0.027858531 0.750962 0.34919038 -0.1686486 0.26227573 -0.49617463 -0.62312686 0.23269168 -0.5038922 -0.18028368 0.07088438 0.04003781 -0.19434746 -0.10778649 -0.27207208 0.12993416 0.4531196 0.36040798 -0.04791727 -0.04147165 -0.4431249 0.37389612
48516 0.3126805 -0.7263766 -0.21376556 0.27528042 0.51552665 0.3577203 0.37812698 -0.69055814 -0.21186507 0.035546053 -0.76378393 -0.80418104 -0.024842683 -0.36159992 -0.41128385 0.92971456 -0.018271806 -0.18673284 -0.7094512 0.59050125 -0.652945 0.5950779 -0.78361297 -0.9422347 -0.39092195 -0.6366998 -0.35001263 -0.0663628 -0.5735154 -0.077119954 0.21043208 0.23228633 0.06922562 -0.042204503 -0.33369514 0.1347158 0.23091677 -0.3778811 -0.195236 0.15651894 -0.39756596 0.3212343 -0.40425953 -0.25813937 -0.17263637 0.17646837 -0.5335576 0.12217911 -0.03995352 0.17082593 0.09643656 -0.30676076 0.24202675 0.7769917 -0.12221684 0.61844176 0.71463615 -0.19396237 0.017223874 0.06089123 0.31630284 -0.079224885 0.096300624 -0.0008503848 -0.22344957 -0.18396777 0.2971776 0.072699964 -0.29928282 -0.115678385 -0.16300084 0.306275 -0.4703687 0.38259175 0.5889215 -0.5110803 -1.0649972 0.010951104 0.28528437 0.11249229 -0.33547002 -0.67900777 0.8052799 1.2407995 0.21893038 0.64831895 0.11143264 0.1739042 0.40120915 0.137448 -0.20389284 0.5719274 0.7728935 0.2679143 -0.3059926 1.0495651 -0.3672137 0.12508191 -0.13473657 1.0600475 -0.8253269 0.34840113 0.81373864 -0.5355047 0.27865908 -0.35859612 0.80102396 0.21527176 -0.35849398 0.17042631 0.06531143 -0.14529549 0.22273201 -0.114480786 -0.61588675 -0.55547124 0.60053277 0.0672317 -0.385796 -0.6188163 0.14277668 -0.8793339 -0.015071681 0.83544403 -0.8268226 0.30968764 -0.24273197 0.06261879
4995 0.324711 -0.6024862 0.2866791 0.7004149 0.37582368 0.1705254 0.044007394 0.010824291 0.027097221 -0.022804374 0.277965 0.604719 -0.18224528 0.16336276 1.2635432 0.28323865 0.13703266 0.63053155 -0.14550394 0.15902954 -0.26671565 0.55422825 -0.45983827 -0.6428277 -0.6337683 -0.306366 -0.6457854 -0.021815263 -0.12776344 -0.5868581 0.6896546 0.6752078 0.18276156 -0.24609923 0.58332306 -0.2670375 0.020743579 -0.20060687 -0.8494085 -0.45507553 -0.6957251 0.8578038 -0.31446412 -0.94756913 -0.0021511249 -0.013576673 -0.092274375 0.027213 0.42702955 0.37234795 0.40631333 0.26580927 -0.07170787 0.30183077 -0.3804961 -0.39145374 0.65065193 -0.45227394 -0.27315024 -0.3129261 -0.015456511 -0.069588006 -0.079625 0.39919573 0.83310014 0.356176 0.2035801 0.14789854 0.1500837 -0.53774357 -0.47010842 -0.4850874 -0.7305402 -0.33164746 1.063261 -0.19584782 0.2653844 -0.5833609 0.65498006 -0.2082036 -0.14788847 -0.010601092 0.44906333 0.8162611 -0.21482098 0.31165785 0.16311125 0.8078752 -0.09123516 -0.18461885 0.008059882 -0.04897652 0.16560043 0.16868326 -0.12616505 0.55018723 0.3654063 -0.77325845 -0.22265264 -0.116601415 -0.94575673 0.36888322 0.00468093 0.30618146 0.13093266 0.586925 -0.27755204 -0.17253163 -0.052419066 -0.71800953 0.41940376 -0.1486909 0.34290814 0.7905829 -0.14233205 0.15074468 0.049055744 -0.2560501 0.8920016 -0.60384923 -0.39848137 -0.11901069 -0.82540494 0.34621233 -0.4137518 -0.06987721 -0.5657375 0.12285459
3147 -0.25022036 -0.43533483 -0.083805226 0.28347674 -0.5290331 -0.36891246 0.0052464684 0.39957893 -0.2416419 0.12188739 0.09137929 -0.2738251 0.021148793 -0.6125871 0.8096558 0.41927147 0.49082798 0.18206832 -0.7918879 0.8413314 0.25037053 0.44191185 -0.64542663 -0.4652488 -0.22906268 0.57739943 0.15368597 0.5380691 0.13169938 -0.252482 0.1190178 -0.4300358 -1.1978987 0.2281437 -0.5136412 0.2744719 0.06036887 0.10974974 -0.44795865 0.22275333 -0.14597678 -0.6639411 -0.06372066 0.36572257 0.41152942 0.46309876 -0.14929548 -0.8066043 -0.4244905 0.080543235 0.95668066 -0.28709298 0.5632669 -0.09785954 -0.12429151 0.13149025 0.8932769 -0.4527915 -0.45056167 0.02953254 -0.1152503 -0.48613313 -0.48491517 0.6570075 0.13714845 -0.23260976 0.67901844 0.61067075 0.2409069 -0.5134567 0.016368559 -0.5193027 -0.22400744 0.41130883 0.8262979 0.31781185 0.5076641 -0.33474937 0.34477532 0.1947823 -0.33156607 -0.26615342 0.32723662 0.31190413 0.6110421 0.39289758 0.16909516 -0.93854356 0.4571619 0.13616969 -0.19185506 -0.12103215 0.35115182 -0.25315052 1.0160271 -0.066229075 -0.31031847 -0.32351238 0.35706925 0.12635803 -1.1639299 -0.44810042 -0.15866058 0.31440175 0.721889 -0.05166367 -0.029312627 -0.29403022 -0.45243308 -0.044689924 -0.35438806 -0.7422614 -0.009446189 0.25588965 0.38263914 0.19087209 -0.23387969 0.4819896 0.626175 -0.84924346 -0.36771074 0.8174903 0.0704317 0.35110524 -0.5545808 -0.07809552 0.2843297 0.29840717
6539 -0.3140998 -0.96478945 0.44732046 -0.14873548 0.016994808 0.054390367 0.11019887 -0.44383317 0.106124125 -0.5184072 0.24588893 -0.006692265 -0.72467285 -0.12967594 0.47417334 0.17692187 -0.48914406 -1.1970662 -0.40585047 0.20627859 0.0684435 0.5204404 -0.5057993 -0.48476624 -0.6173582 -0.2103981 0.47622094 0.5047932 -0.1906816 -0.97699666 0.4113063 -0.038104896 0.115236886 -0.7409036 0.3040445 0.33698228 -0.09883378 -0.038690988 -0.63161534 0.5870734 0.27425733 0.93238294 -0.45112404 -0.0799328 0.089320846 -0.00014555592 -0.67426544 0.280738 -0.37176967 -0.20328142 0.3962933 -0.20429534 1.0166485 -0.14327112 -0.43862447 -0.07203776 0.11887704 -0.7975973 -0.2549404 0.3019444 -0.5618261 -0.2650987 0.1596375 0.64539886 0.64407563 0.17481916 -0.2305123 -0.06155222 0.55136037 -0.16488968 0.18416624 -0.7459866 -1.1749815 -0.069761604 0.40052578 -0.057715848 -0.48434725 0.1589492 -0.47020268 0.79805475 -0.33103392 -0.19145305 0.17700735 0.3505094 0.44421712 -0.18639188 -0.005811151 0.44570288 0.2978911 0.5658977 -0.09648676 -0.37437642 0.5508162 0.27171618 0.1587242 0.33263648 -0.2969185 -0.66019285 0.023288772 -0.2898022 0.23236482 0.49094158 -0.20434405 0.09874555 -0.20265333 -0.80147403 -0.0845288 -0.38729316 0.13244392 -0.38291374 -0.28576472 -0.33387733 0.34824702 0.88044584 -0.14694928 -0.015912104 -0.07515172 0.20241064 -0.06069157 0.26040983 -0.21532181 -0.77149034 -0.3388828 0.2892373 -0.3104553 -0.15616165 0.51096094 0.20599042
6874 0.15110874 -0.57100296 -0.082346715 0.45898688 0.07935878 0.45596132 0.027706703 0.08687274 0.0024452268 -0.4456287 -0.5393789 0.45392203 -0.6777956 0.17645217 -0.24717799 0.7034671 0.16072889 -0.22247334 0.18335271 0.50487465 0.1745978 0.58707565 -0.6113505 -0.8446165 -0.07556873 0.52554756 -0.45205855 0.030846138 -0.3243778 -0.015171766 0.49690604 -0.18621376 0.35949615 -0.49323064 0.268247 0.08009908 -0.01603998 -0.47680604 -0.25077432 -0.01448625 -0.66823536 1.2603365 0.08978166 -0.6782547 0.78684825 -0.27178407 -0.8416366 -0.28353325 0.0659833 0.10345924 0.5782122 0.42587233 0.53562427 -0.50001943 0.0061055697 0.15483215 0.9959909 0.36916843 -0.47357523 -0.08572761 -0.057275105 -0.31208125 -0.6891572 0.25177488 0.66726613 0.3293467 -0.19836144 -0.18134715 0.15665743 0.6862318 -0.16011178 -0.13771325 -1.6451957 0.16173215 -0.03401674 -0.053221136 -0.6473652 0.34788337 -0.37000525 0.34428176 -0.04684668 -0.6502097 -0.2668789 0.72240424 0.71517503 0.65380114 0.02235293 0.10995931 1.0916841 -0.24432433 -0.10882508 -0.45195568 0.04496824 0.36235395 0.46633562 0.08373688 -0.4829468 -0.57958263 -0.41514426 -0.5711737 -0.4356929 0.2860728 0.27277693 0.62718296 -0.3966153 -0.8067281 -0.19413279 0.17931022 -0.51765114 -0.13931215 -0.2767798 0.15424472 -0.24444877 -0.25877336 0.10132224 -0.93420887 0.59884906 0.25418478 0.04217841 -0.29889542 -0.4043074 -0.7216463 -0.16279082 -0.32700357 -0.104981385 0.0069802674 0.08419196 0.58099645
541 0.25897843 0.251333 0.891463 0.24623832 0.3100583 0.25183037 0.02874855 0.21233217 -0.06632986 0.25727475 0.59015787 -0.7718914 0.34258988 -0.22433643 0.5855732 0.3501323 -0.547987 0.11009707 0.13503574 -0.015819436 0.23296823 0.38348907 0.10154116 -0.465326 -0.25436178 -0.09982207 -0.49469158 -0.0028883081 -0.46114963 -0.6212942 -0.58537966 -0.43864465 -0.16352397 0.121724755 0.14241457 0.18446589 1.0988375 -0.35384744 0.22499862 -0.64252913 0.42627177 0.072809726 -0.60594696 0.100384936 0.76465905 -0.29933238 -0.9162354 -0.6244316 -0.35841745 -0.076596804 0.28063053 0.46259412 -0.08522455 0.6169787 -0.37859342 -0.5981032 0.97643876 -0.12072718 -0.7752618 0.29506516 -0.71935076 -0.0011564085 0.62392366 0.23742428 0.18013391 -0.53666294 -0.10505395 -0.17393367 -0.45444146 0.027258983 -0.3297686 0.13551474 -0.4964913 -0.59324306 -0.16956522 -0.5797129 0.17434771 -0.22789864 -0.521971 0.2130543 -0.59718597 0.10345953 0.21173944 0.32087603 0.42258912 0.107321724 0.8242492 -0.21099553 -0.05632867 0.2516226 -0.13135105 -0.5682466 -0.42471775 0.4051994 -0.2563155 -0.078681946 0.017877538 -0.27110392 -0.21907353 -0.28435645 0.19733022 -0.4636642 0.082601495 0.31782264 -0.22353935 -0.18339048 0.31604663 0.48507488 0.13642196 -0.4329461 -0.2107338 -0.4963072 -0.56245285 0.10081762 -0.46485376 -0.30066544 0.17824745 0.13363926 0.5068837 -0.33355218 -0.2653398 -0.13849624 0.480091 -0.43942115 0.1799205 -0.61440396 -0.6512112 0.32718617
4886 0.23795588 -0.45556942 0.09502586 0.77203155 0.1410139 -0.3122443 0.22658227 -0.10245874 0.09380844 -0.53933275 -0.27161834 0.09556122 0.4380971 0.4451163 0.2370598 0.08020523 0.26930663 0.5097459 -0.2281827 0.1873307 0.2583231 0.82468885 -0.84964424 -0.03214112 -0.5907421 -0.84019744 -0.42728743 0.53102523 0.56950414 -0.5282447 1.2459842 0.5121203 -0.4117662 -0.6212031 0.553168 0.7405972 -0.37029094 -0.4025802 -0.39084142 -0.1663814 -0.5299075 0.44026545 -0.68796086 -0.51076734 -0.06999383 0.06834226 -0.15567088 -0.53402025 -0.12810642 0.81462884 0.5331163 0.9669142 0.21511917 0.40639496 -1.1035062 0.65951294 0.3818348 0.4853612 -0.031801604 -0.18426836 -0.13853048 0.027865577 -0.28928992 -0.06643027 0.4456744 0.5579308 0.12356924 -0.4123598 0.18719877 -0.3738968 -0.43181247 0.0106948 -0.408848 0.3546066 0.98930013 -0.036377132 -0.0018979169 -0.46235916 -0.12862155 0.66250724 -0.36244494 -0.490075 -0.082635835 0.31418782 0.6029527 0.26261714 0.51502323 -0.9931843 -0.11068982 0.60393494 -0.13913839 -0.7779362 0.04324347 -0.247274 0.7900455 0.6712166 -0.371544 -0.05578782 0.24972345 0.56339663 -0.5609018 0.13428774 0.20834094 -0.030436847 0.71428066 -0.23336302 -0.58431304 0.14156431 0.08389282 -0.20601323 0.38496953 -0.3273966 0.19276303 0.35850662 0.22796176 -0.06570631 -0.36211 0.0101126665 0.27705795 0.49413577 0.33191684 -0.2371364 -0.40277064 -0.4046098 -0.10059837 -0.72684264 0.119738765 -0.049122278
1206 -0.46753797 -0.041064303 0.18985148 -0.5164597 -0.033766612 -0.2584768 -0.42352444 0.32896948 -0.7110031 0.5415181 0.12121861 -0.49989018 -0.74012077 -0.41220996 0.42858446 0.5829667 -0.5172981 0.22050057 -0.062683634 -0.13740216 0.27903932 0.29338205 -0.10989333 -0.73438704 0.45371577 0.19183397 -0.57803446 0.14127633 0.33854526 -0.4223124 0.29561266 0.12252462 -0.34963235 -0.023495657 0.04517355 0.97867185 0.068742424 0.41358674 0.6916984 0.08955486 0.18189627 0.63498867 -0.0025319178 -0.6454703 0.44362447 -0.35038662 -0.5100042 0.48334777 -0.11324625 -0.5437986 0.2815749 0.14533408 0.2769979 -0.1824831 0.31053707 0.11250766 0.69866717 0.6241852 0.4828616 0.75756663 -1.0001804 0.2960975 0.29461083 -0.338762 0.41946876 0.30539382 0.5029901 0.2116315 -0.25792578 -0.37738296 -0.26387978 -0.11012857 -1.0092891 -0.82408184 -0.2621798 -0.82255054 0.12438268 -0.45526913 0.5627477 0.13357656 -0.5006658 0.20527777 0.68128043 0.72484994 0.54002136 -0.136813 0.90334195 -0.13778286 -0.1186283 -0.117661715 0.24040897 -0.6429831 -0.06436409 -0.15414041 0.30055827 -0.18661307 0.04259824 -0.24586627 -0.27477753 -0.43579662 -0.23741165 -0.14791876 -0.23905005 0.15334108 0.1607261 -0.2514205 -0.25525928 0.38317627 -0.34662 -1.0876038 0.6374585 -0.5040065 -0.38194385 0.2738888 -0.6515963 -0.20395184 0.33356294 -0.21480142 0.12926796 0.19993925 0.043891557 -0.03537222 0.4676499 0.114427 0.7553793 0.97286814 -0.8561143 -0.13690819
1200 0.09224247 -0.32056686 0.5400377 -0.009460536 0.29339314 -0.39992183 0.36678866 -0.361888 -0.35328242 0.5185757 -0.020771904 -0.23640925 -0.05188623 -0.45677307 0.64229065 0.6442325 0.25933054 0.21572725 0.1998876 -0.21489649 0.21064927 -0.12381464 -0.27440122 -0.9151302 -0.6316921 -0.07997356 -0.109861344 0.22762926 -0.08384299 0.24028514 0.76106125 -0.39180818 -0.70955557 0.069747604 0.05919539 0.8319149 0.061326943 -0.5326342 0.3900908 0.08332354 0.66306525 0.42010713 -0.36545375 -0.3721586 0.29078457 -0.3643789 -0.39416382 0.42821226 0.088268936 -0.29543284 0.37382317 0.54660714 -0.29916024 0.005701318 0.6651173 -0.6649708 0.99643886 0.2989127 0.2005205 -0.0039793947 -1.2611771 -0.26726648 0.5603184 0.70134646 0.24102806 0.3746905 0.6073491 0.09969417 0.45010898 0.29426143 -0.31161252 -0.021766363 0.114688575 -0.5536665 -0.4612227 -0.82764226 -0.19411503 0.059041694 0.102837324 0.3430586 -0.13912925 -0.062338345 0.44926223 0.9525325 -0.24744122 0.23680654 1.1149316 0.1455943 -0.40171996 0.46125033 0.37074834 0.09476117 0.27164215 0.61167365 0.83848304 0.052790083 -0.49933594 0.46218747 0.030956043 -0.46512333 0.12584162 0.07402462 0.11358436 0.56903815 -0.5102001 0.35609525 -0.909028 0.38665232 -0.13115191 -0.02925836 -0.082121946 0.050103012 0.22227451 0.3105611 -0.69788575 -0.3910888 0.46235335 0.075406045 0.56355983 0.0016632127 0.14238591 -0.65698975 0.48723283 0.20121782 0.38104814 -0.4274279 0.44186437 -0.49882627
780 -0.08488101 -0.6879881 0.13308926 -0.20110247 0.04898358 -0.07780345 0.45059362 -0.17183977 -0.4534797 0.25382376 0.0800845 -0.4205098 0.26656574 0.05040175 0.7522313 0.5005374 0.63998985 -0.22254667 -0.9119353 0.051443152 0.1681942 -0.06548005 0.40468398 -0.50643694 -0.65702736 0.1901807 -0.5890392 -0.095272094 -0.22218488 0.42257914 -0.46510106 -0.796678 0.13747247 -0.17183028 -0.2314698 0.5298386 -0.26897427 -0.33860043 0.1188524 -0.13058521 -0.4065612 0.12838838 -0.28842336 -0.08263811 0.5722593 0.1624811 -0.5515417 -0.12687643 -0.33234838 -0.6674704 -0.09844124 0.47534946 0.34753278 -0.48311454 0.20430171 -0.90007836 0.14503573 0.895114 -0.7977206 0.13086425 -0.71204376 0.23182072 0.10743109 0.16950454 0.08746055 -0.33754525 0.136997 -0.18571423 -0.36992916 -0.27537364 -0.4148049 0.5757987 -0.122523054 -0.32265326 -0.05976848 -1.1575264 -0.32873827 0.12713778 -0.60493344 0.43599775 -0.36618465 -0.11988189 -0.051214207 0.93923414 0.019170487 0.58847076 0.18532418 -0.22387253 0.020663217 0.103623495 0.04038773 0.51700413 0.23783098 0.24483168 0.16550413 0.26466504 0.47961357 -0.34632143 -0.9406734 0.07416178 -0.12412984 -0.62428874 -0.13494208 0.5591647 -0.39049748 -0.039292876 -0.5464593 0.52118933 0.13583101 -0.5042349 -0.21342319 -0.009954263 0.047978092 -0.08351824 -0.6307227 0.287516 -0.58571005 0.42744324 -0.10157214 0.28704742 -0.3758674 -0.46182352 -0.887349 -0.2712093 1.1472849 -0.18029736 0.36319333 -0.16820757
1258 -0.18867595 0.31071043 0.079877876 0.2466504 0.121236905 0.2740541 0.10101966 -0.7438097 -0.26134038 -0.17794733 -0.29404828 0.073888555 0.5583246 0.096426845 0.8938118 1.0352057 -0.4226437 -0.083016686 -1.1224713 0.098823056 0.96914333 0.9978934 0.19615872 -0.9090746 0.35534152 0.844716 -0.18713617 0.31579566 0.76488364 -0.31034583 -0.1610431 0.7136015 -0.49367625 -0.5634876 0.57298404 0.36794108 -0.039148133 0.0305579 0.72627664 0.05901369 -0.08749297 0.86330676 0.39139897 -0.37366176 0.6761466 -0.35735977 -0.56771857 -0.37279117 -0.12749894 -0.18188345 0.5232747 0.5031451 0.088937744 0.05317933 -0.10236228 -0.34178042 1.0279851 0.3608191 -0.0673467 -0.093797244 -0.6898226 -0.06897339 0.34228727 -0.1745239 -0.29166538 -0.52219605 0.19353774 -0.17666504 0.055937838 0.22399132 0.10033769 -0.1455743 -0.01091844 -0.85772675 -0.042152107 0.19597541 -0.15797457 0.56901973 -0.11700838 0.5874591 -0.043123916 -0.54806656 0.6332703 0.6273245 0.14758454 -0.3457201 -0.12654495 0.3582633 -0.5939497 0.5024299 0.6019338 -0.37187743 0.18305914 -0.14645979 0.9471435 -0.26532346 0.45615974 0.43769214 -0.11720244 -0.17637187 0.18840986 0.27380246 0.20514412 -0.04176101 0.57384354 -0.22887644 -0.33366793 0.45392516 -0.6960463 -0.033324696 -0.4951203 -0.97929597 -0.11477789 -0.0071198605 -0.19614586 -0.24794802 0.08534758 -0.10835822 0.2828942 -0.5166492 -0.0029326773 -0.30198884 0.29723758 -0.042100903 -0.2679824 0.5327479 -0.50244385 0.07080007
1208 0.11355809 -0.05113676 -0.6842919 -0.26578003 0.50602055 -0.23548502 0.07153437 -0.31104884 0.11296868 -0.22035538 -0.16762035 -0.020608684 -0.6643137 -0.14649297 0.52044004 0.69722813 -0.8517594 0.43302235 -0.19934358 -0.03537452 -0.023919772 0.8310296 0.023117524 -0.503428 0.18570903 -0.19215848 -1.1863757 0.25265974 0.9127942 -0.44049123 0.39979687 0.33365276 0.19485694 0.25546023 0.22782727 0.39565492 0.114478506 0.3778424 0.7060162 -0.4014562 0.29814082 0.10566216 -0.2168199 -0.5060967 0.53447497 -0.5967958 -0.5864304 0.30397663 -0.099088304 -0.27137235 0.3467705 0.5148659 -0.36267892 -0.07045782 -0.10413243 -0.31585562 0.7380076 0.38143867 0.1254835 -0.5099033 -1.0455511 -0.113254264 0.24950807 0.03884201 0.32834378 -0.33497086 0.49116966 -0.6422507 0.83587706 -0.2789997 -0.027484283 -0.14175268 -0.61221045 -0.49493593 -0.04667332 -0.2904652 -0.040268406 0.2620518 0.059936315 0.2766458 -0.17225268 -0.008886648 0.6156694 0.41107875 0.20028716 0.340097 0.66634935 -0.8649358 -0.4082957 1.3278987 0.59098953 -0.61153036 0.07995366 0.37075338 0.47967798 -0.37188283 0.014355616 -0.063561045 -0.24640377 -0.5529414 0.052307315 -0.5620394 -0.011452967 -0.03815887 -0.18360317 0.34357432 -0.09911277 0.43003985 0.05102642 -0.45570982 -0.32050005 -0.6369444 -0.4934647 -0.56402624 -0.1696738 -0.52142 0.12037627 -0.27202788 0.33432135 0.27911553 -0.4302151 -0.93261135 0.025727313 -0.19247118 -0.13886862 0.08397852 -0.1797327 -0.1570232
4963 0.67745566 -0.4272477 0.27495396 0.45653918 0.30350593 0.09238728 0.05455106 -0.06569232 -0.33592823 -0.70331544 0.40593502 0.2988906 -0.22910935 -0.58151406 0.09232842 0.737585 0.21806414 0.3033383 -0.040604208 0.11548221 0.24977463 0.32258675 -0.7779255 0.079127684 -0.5061723 0.024977952 -0.4157553 0.7891803 0.37765196 -0.26293874 0.55402863 0.5103917 0.012545123 -0.51707333 0.46026564 0.05018372 -0.14737304 -0.094493344 -0.9438188 -0.32862866 -0.30096647 0.40792084 -0.0075671556 -0.48395583 -0.024422163 -0.8280479 0.34520426 -0.43564984 -0.16075489 0.42195436 -0.2504621 0.2625376 -0.029648129 1.1339248 -0.20000914 0.060439028 -0.33453918 -0.23881891 -0.45311868 -0.11280584 -0.6180375 0.43791792 -0.33381295 0.29953212 1.1750975 -0.2233164 0.36627635 -0.32367146 0.22183424 -0.08233092 -0.06617867 -0.35441688 -0.95028275 0.0025776313 -0.0073542125 -0.4117507 0.15217091 -0.11063739 -0.020755965 0.6481079 -0.43706802 -0.9518166 0.5521186 0.22566691 0.9352069 0.6253873 0.5558339 -0.31216955 0.079141535 0.048651066 -0.58060443 -0.40595126 0.3681401 -0.031234862 -0.117869996 0.46100438 0.079584 -0.7343612 -0.24527085 -0.19424902 -0.5584894 0.26168618 -1.1181997 0.07562657 0.31413695 0.46507496 -0.112772554 -0.42060772 -0.1515348 0.2266948 -0.103280574 0.004745636 0.73439765 0.6582379 0.36549297 -0.19868127 0.47992757 0.13357848 0.7543843 -0.77379316 0.115548514 -0.18088181 -0.62478703 -0.37274742 -0.55657494 0.43504202 0.18982771 0.09450379
912 -0.15285994 -0.23972349 -0.32959142 0.7215623 0.65294915 -0.60368705 -0.16254386 -0.4435916 -0.24306463 0.51201993 0.98332214 -0.36405504 -0.025347507 -0.24233149 0.1522837 0.88000464 0.21300726 0.58535326 -0.31776497 -0.0027574834 -0.17941481 0.61332726 0.541202 -0.3023715 -0.45667425 0.041454196 -0.024673129 0.0420045 -0.12881696 -0.33279032 -0.24461907 0.121332586 0.13447075 0.29816905 0.35824686 0.43039206 0.6587865 -0.5278659 0.26166007 -0.34930086 -0.5747298 0.25750715 0.27195585 -0.0026308787 0.19399913 -0.21878222 -0.4906356 -0.28738183 -0.5560698 0.1260371 0.33796936 0.14529514 0.49209 -0.44804466 -0.19096626 -0.13013007 0.5388161 0.10618412 -0.05607439 -0.22197331 -0.5807165 -0.47651786 0.632672 0.20697641 0.21667178 -0.49372154 0.18382053 -0.15591244 1.0187922 0.43875188 -0.512774 0.4989095 -0.39587256 -0.646516 -0.35433638 -0.25703102 -0.028871689 -0.5018422 0.33511317 0.07294604 -0.0396551 -0.2748305 -0.4295758 0.24724081 0.40928295 0.40721986 0.98886544 -0.288729 0.0073268353 -0.34844154 0.75266796 -0.5619051 0.64550626 0.5194596 0.08802558 -0.12246226 0.23613618 -0.34172237 -0.32202077 0.12239443 -0.69507116 -0.3776303 -0.27810413 -0.78800213 0.09678315 -0.46697313 -0.44048285 0.69264036 0.33128822 -0.9225111 0.036441788 -0.4623069 0.27774024 0.16835089 -0.30564857 -0.054600723 0.1452994 0.12672769 0.13824897 0.21324845 -0.6264227 -0.664374 -0.40554166 -0.55277586 0.19441535 -0.30965447 0.24578567 -0.026613995
